solver_type L2R_L2LOSS_SVC_DUAL
nr_class 17
label 13 16 15 11 9 4 1 7 12 3 17 5 8 14 2 6 10
nr_feature 4096
bias -1
w
-0.001286334325090912 -0.001295885051848573 0.0004324308921811139 0.001341578145097704 -0.0007055135670479637 0.003594250872097246 -0.004492624722779929 0.000275616489889017 -0.0009791353834332766 -0.001458224588694251 0.001248013976794824 -0.005260780452254642 0.0002226365827613358 0.000299339398396931 0.001933784211173933 -0.003121088865709726 0.0004969371871505891 
8.470329472543003e-22 -0.0003433199442057318 -0.0001480474100432256 -0.0006150219797491296 -0.0002110195469927699 -0.00182136925194336 -0.0002240500739474852 0.0009094818566285643 -0.0002231498509089301 0.002052078885551644 -0.0001755246639112205 -0.0008585197746067464 0.0004444886677942358 -7.736055938633888e-05 -0.001694537763295507 0.00100260783689561 -0.000445809555311384 
-0.000957042260937227 -0.001168190649248742 0.003919079233285053 -0.0003909250066949047 -0.004665960966627041 0.002393234840730785 0.001864416852850016 -0.001253719443449151 -0.003462459067062629 -0.006069311717488596 -0.004644730533560478 0.0008363550197775075 -0.001408882159423126 -0.002963764580428623 0.006744897013684555 -0.0009917781880532763 -0.0006885738024597096 
-0.0001474464084489247 -5.701302642101729e-05 -0.001674745354894869 -0.001976971910608894 0.001220643565825853 -0.001151796676900005 -0.0009030178764003693 -0.001492118625237828 0.00317183828833379 7.612557479322431e-05 0.0008980571231173683 0.0007560586962950196 0.002833625356323711 -0.002667599182241177 -0.0004240597648652343 0.001347958749638091 -0.001371538267314083 
-0.0002086283418193912 0.0008326276336536311 -0.0004457614851289412 0.001162160850098611 -0.002448564833379773 -0.002289300365824813 -0.001423784004309552 -0.001533056587360908 -0.0003704061887095409 0.001491873894647934 -0.0007416783802603093 0.0009862124288017656 -0.0009615349059693401 -0.0006703021231357656 0.0005217639337443512 0.002964923718567314 -0.0005094192240301618 
-9.651586717439938e-05 -0.0008246668407110027 -0.0001090284905286674 -0.0001976508127938816 -0.00204177140589563 0.003217035105848665 -0.0009706474969268098 0.002484042148487667 -0.000244917725143406 -0.0002504371395645073 -0.001600415195581636 -0.00080240333856388 0.0005039246520918888 -0.002600523171520604 -0.001976833673760798 -0.002297945108236892 -7.33397195968719e-05 
-0.0006037079492243973 0.0004515459457959126 -1.191184989466466e-05 -0.0002426271472380706 -6.488274622567804e-05 -0.001252103324102132 -0.0001101643003419944 0.0004153416981666002 -0.0001607590279644912 -0.000772504635935699 0.001262428411138544 -0.0006284268548676972 -0.0001804053959954126 -0.0004250625591526666 0.001054795530470933 -0.0005828052784123522 -0.0002270762325179884 
-0.001057817543387875 -0.001888332557253344 -9.835424142833596e-05 0.0001039030915237566 -0.0002180622572993664 -9.844261225915378e-06 -0.001560341182083631 -0.0009390722950665989 0.001872886973714455 0.000586680473714154 -0.0003317425169914957 -0.0001727620320653584 -0.002501907920398322 -0.003301800063248572 -0.0006731664761924586 -0.0005656977397140429 0.001822750546146651 
0 -0.0001228097432452237 -3.862331331333631e-05 -2.117582368135751e-22 -4.547135025038e-05 -0.0001754155089496146 -7.725200856326895e-05 0.0001295942906327019 -0.0002897645119146455 -6.580553563381432e-05 -6.402572385518648e-06 -1.765425483362628e-05 -4.235164736271502e-20 -0.0001138990287384936 0 -0.0002277186052236618 -1.271231361142455e-05 
-3.740197905100223e-05 -4.917837500655346e-05 -1.694065894508601e-21 -2.351104727893688e-05 -0.00163775110634058 0.0006254326269293029 5.082197683525802e-21 -0.000355728412211462 4.912791094074942e-20 0.0006468162409633083 -7.545516115153912e-05 0.0001410009230588961 -2.401311161075897e-05 0.001073539266488045 -0.00166060412675833 0.0002433381334667379 0 
0.0002786573118571612 0.002898728793327008 -0.0003434431293484748 -0.001050722222938441 -0.0005971752688749219 -0.0004707975789455405 0.001717999941942782 -0.001029254772329188 0.0006587954629498933 0.0003757155082570116 -0.0002876613310904851 -0.00198452387773479 0.0004235465940204466 -0.004964123455479755 -0.001697871974918726 0.000166753964762615 -0.001038989801279857 
-0.000834367833561593 5.492169074622396e-21 -3.421561706390317e-05 -0.0005031208695748053 -0.0001921477004431231 0.001828017628412534 -0.0003543451814107283 -0.001220221587093008 -7.782709377080401e-05 0.0003864221875400931 -0.0006256669333776377 -8.199475759693108e-06 -0.0007669515321834397 -0.001122405626877872 0.001166773031910585 -0.001696214260222137 0.0006936118329288917 
-0.000565113115277846 -0.0001226546904930472 -3.450252967802579e-05 -2.5286536767516e-05 0.000497529078905308 -0.000150629531277877 0.001985116736877446 -0.000799381052748115 -0.0001048285371253667 -0.0005342369976312219 -0.000123121378755301 -0.0001975534516273712 -0.000931247952269994 -0.000886927358720617 0.001585481567751796 0.0002590549537884848 -0.0002839461063864541 
-0.001258220661475194 -0.004018844798914407 -0.001161791455085597 -0.001994955683245029 -0.000209493556871882 -0.0005002882236730859 0.004258349014025839 -0.002538802120976259 -0.002591420154441192 -0.0003590668675888624 0.002130389222126217 -0.001531260121186433 0.005292440660653344 -0.001874632130919519 0.0006567985563310406 -0.002083645893647516 -0.0006082739417027099 
-0.001890952280152948 -0.004180232462572721 -0.004222032500366905 0.0007986969747602228 -0.001390885917930089 -0.01073738993182343 0.003324217427582545 0.002536308946489364 -0.001979193335120995 0.008308608920879769 -0.0009903100994695009 -0.002585299550244881 -0.004098615227842513 -0.004981674823841115 -0.001412562434255808 -0.0005827957492998113 0.0006894729535682881 
-0.003569456143078878 0.001693309616793345 -0.001692716307300053 -0.0002601687400105249 -0.002146083258857233 0.000923506604393144 -0.00423932233553087 0.002045803156325643 -0.0002204300559393457 0.0030915699727432 -0.003147143157841752 0.005623081281054745 0.007895283237831303 -0.007551436987945725 0.0003284963872189431 7.810786083035348e-06 0.0008475987379019943 
-0.0006065934665933479 0.000219349555596151 -0.000370804465906282 -0.0001554262178365781 -0.0003057399603796945 0.000458155496501048 0.001459947224168288 -0.001571766728222828 0.0003265749486439435 -0.0003768864277641877 -0.0003659192868187098 0.002224443421356015 -0.0009424280379456033 -0.0006238329591145035 -0.0008405445024904858 0.003331591336552045 -0.0009383143082737204 
-0.001596396147214287 -0.005209835866381216 -0.0005328820690685231 -0.001016405924450945 -0.004504449950459611 -0.0001340530963103019 0.003190888739879249 0.001358790160319966 -0.006867882977766896 -0.006630187837783259 -0.00200859601358721 -0.003738501882636261 -0.002018901877688722 0.004991078064501983 0.00469572113325427 -0.001615258512220617 -0.002159434514957408 
0.002352092712583811 0.0004633354124269805 0.0006663066889009697 -0.000816359449334585 0.006276243283432197 -0.00925503457287293 -0.002020715579283122 -0.0003575141825903469 -0.00738082736935912 -0.0009392762829887068 -0.002212989081064212 -0.002426449970009373 -0.001983628506934346 -0.003114343193289837 0.0001541656694038099 0.003911969900211152 -0.0004917745797095705 
-0.003463993192506989 0.003324222267220198 -0.00350275891838122 -0.005211039891223511 -0.005759033534937634 -0.003929353621278951 -0.006826564847931254 0.002248540380584376 -0.001737907627961967 0.01054521011077533 0.005278702563953655 0.002904727097978263 -0.002755768420580488 0.009917841463651728 0.005665633572831317 -0.004231558838227785 -0.002259753045250441 
-0.002514262494743442 -0.005568522232902797 -0.001148251704937779 -0.002224646158382132 -0.001617034903736925 -0.002191258198638049 -0.007738399120732129 0.00478190478073006 0.005505008557578211 -0.0004566369542766226 0.002087924661712638 -0.006477023920329402 0.001589126024964371 -0.0004148046992875259 0.003915079599315996 -0.0006313364804653784 -0.002957227480399548 
-0.0003295775084601514 0.0009941764376352384 -7.549920949364847e-05 -0.001029064016028217 0.001263980950976693 0.0007940473169487937 -0.0007528782443209273 0.0001436998326926422 1.01643953670516e-20 0.0007729420481540905 -0.0004879542510474366 -0.000679816847458751 -0.0002244095846244728 -0.001422305025683629 -0.002801935182397811 -0.000539688455302762 -7.092539840446677e-05 
-7.378024229662921e-05 0.0004542267782928628 -0.0005763245436439882 -7.486914259124829e-05 -0.0007949619329923014 -0.001276141148933527 0.003246524243918534 -0.0006083341361813854 -0.000156975199483882 -0.0002723294096125729 -0.0008864583019400518 0.0006554455320290604 0.001095578332628369 -0.001259288952676884 -0.001192154375878034 -0.0003030407402246277 -0.001137876619709428 
-0.0002435300879817577 -0.0023933728558575 -0.004385337534927465 0.003987038017965095 -0.001649826954142663 -0.002176717283068643 -0.003105295929260904 0.001602729479889879 -0.001908707628027464 -0.001732191001147662 -0.003240948546996945 0.001498253060473331 -0.002216245389130414 0.002390037560459367 0.001346651324176406 0.004008825727619837 -0.002897692966798286 
-0.001141882860558282 0.006664583835548784 0.0001978425103660851 -0.001179617374132773 -0.001753475753826601 0.003609545118628535 0.0007941608703817316 0.003800189236356849 -0.0002461030175491574 -0.001494311770505218 0.0008467345580501683 -0.0003140747021325988 -0.0002856699544683251 -0.002216323596694126 -0.004206682982749692 -0.0008933800797685425 0.0002049191342270327 
0.00121041362380744 -0.0006720590472754725 -0.0001081680059989409 -0.0006735319448212612 -0.001219042829242228 0.008608993318306953 -0.003251446897475291 -0.001227311405460162 0.001409817481182472 -0.005799701210715653 -0.003562682831818993 -0.002845330461204435 -0.002128183664007689 -0.003019217265273226 -0.001253512770547657 -0.004032281203400268 -0.002758043821593479 
-0.0009976811337115937 -5.421010862427522e-20 -8.743866746078498e-06 0.0004084170944888428 -2.667771732767601e-05 -7.118363908746712e-05 -0.0005191680937556631 0.0001384727978252914 -2.032879073410321e-20 -8.470329472543003e-22 -1.963792028392034e-05 -7.256451090570927e-07 0 0 0 -0.0003787689207670951 0.001717600355715949 
0.002360590491570083 0.0009570176853262564 -0.002097625648547752 -0.0004152102144368771 0.001427017850373961 0.00129470501016044 5.384728935692124e-05 0.001014659660533765 -1.930224930943013e-05 -0.0006393361433624752 -0.0005955720191184909 0.0001864550552453061 0.002765037491367883 0.0005319735406682044 -0.001037982270583222 -0.0004075721796208611 0.0003054095537252622 
-0.0002396952045407344 0.002865506716086252 -0.006518559101499581 -0.0008781375246604377 -0.002779832030616845 -0.002546796564835669 0.007530062453118213 0.002349470354585423 -0.00177432939226432 -0.003121973710508378 -0.003505681589363287 0.003959227983832524 0.009160348638881557 -0.008134902541132074 -0.001469707497083055 -0.0007751186461802917 -0.0005198283643746126 
-0.000161271578029608 -8.948178195515089e-06 -0.0007355470729941987 -4.48430414642102e-06 1.065226770115657e-05 -0.0006032969453183821 -0.0002247760697401565 0.0005929056661459756 -0.0002961834099424756 -0.0008005209565002777 -1.099073930325798e-05 -0.0002600222202031716 0.002554955293312753 -0.001805186666017817 0.0004866006375391832 -0.000205553998800584 -0.0005206756419633772 
-0.0003077508944329867 -1.645062600240738e-05 -0.003731005763151635 0.001127046105224068 -0.0001072661551311571 -0.0007507657026070855 0.001644868201105714 0.002314161249119774 -0.002906585163938745 0.001341136698371527 -0.001916437508509708 -0.001974894616765932 0.001751365078234484 -0.007435991862379384 0.001452934298392503 -0.001042960170441352 -0.0008986698585447128 
-0.00167315185066848 -0.001561982618097739 0.0002248726845743785 8.470329472543003e-22 0.0001073886430530187 -0.0009128302340092963 0.0008047269973018249 -0.0001053172400328689 -2.325429594882239e-05 -0.001655279422670896 -0.0006464183581513392 -0.001162672424002795 -0.001229076725867692 0.0005392783457356345 1.553174502306105e-05 0.002291993463110738 -0.001045701890985113 
0.0001029625308261881 0.002561390461478041 -0.0003815708660685044 -0.0003204244064737734 -0.001342879245802182 -0.0004043926506764775 -0.002484571515516142 -0.0009156992331180259 -7.860210889463995e-05 0.002856123191572363 0.0006143771526854575 -0.001928580481864079 0.001447513649733214 -0.0001108600436405784 -0.001921201720962096 0.0002981510230289866 -0.0005864898601933285 
-3.395704841519202e-05 -0.0001093695161362988 8.470329472543003e-22 0.000492898955825616 0.0002584454294870583 -0.001288391618682629 -0.0004071015680913941 -0.0001604917732523256 -0.0001744620967901416 -5.765280996134831e-05 0.001869320279172572 -0.0007575943314334017 0.0007469364570145204 -8.604050579161406e-05 4.184954386951277e-05 -0.0003860484982385834 -0.0001216953571180223 
-0.0003619177696374747 -0.0007509907465264421 -0.0003235911033249314 0.0004095089448741083 -0.0006943619382087211 0.001852386581044036 0.0008603423849438432 -0.001695342037570096 -0.001673014358873914 -0.0006670831513596082 -0.0003501871344983634 -0.00105682728918369 -0.00302159033443248 0.002086372306870587 0.001574170277220452 -0.00213629912026045 -0.001201450710002296 
-0.007757874398614944 0.003009606476109963 -0.001282367490766932 -0.0003510298723275524 -0.0003597725894603871 -0.004871576846642549 0.004908030473020992 0.001324801654747968 1.068297062241435e-05 0.0004062340851000967 -0.001185513438178509 0.001334721639620718 -0.009145870124208286 0.001546087364293148 -0.00272258646009531 0.003612803032341055 -0.0008286017744403734 
-0.006582764553482215 -0.001086044594006324 0.0003044810569177679 -0.0002212625780555687 0.001552018197896208 -0.0006296588496646018 -0.007352530777891688 -0.003361096121124351 0.004177494262172511 -0.001459342280457909 -0.004271936187796345 -0.0009887344784922883 0.0052460356337741 0.0003430712616556373 -0.001884633941414738 0.0007444389584501224 -0.004533749761780919 
-0.00707702704123353 -0.0006397031440903235 -0.001259664366953328 -0.003965486169372078 -0.002374048479566405 -0.003561231576882161 -0.005809101441080483 0.0001283523315797262 0.001364785385520949 -4.948848865760354e-05 -0.002076198075572448 0.001700093242887991 -0.00234208860399341 0.001656475876886114 -0.0009934584549953233 -0.0005702177037180459 0.002659515400739648 
0.005139566595307471 -0.0005263164760704084 0.003542036068083134 -0.0005004305627631597 0.00115743062732225 0.002255830057248639 -0.003430161857099803 0.001081929102513493 -0.009642959611304909 -0.001068232627861686 -0.001517212933677874 -0.001981918388827743 -0.002352106477411595 0.001034677148150336 -0.001265176126739826 -0.001199241690642125 -0.000910050549388645 
-0.0002148488305402556 -0.006592951597898469 0.005399935184931798 -0.002983403067698774 -0.003721294750750823 -0.004552590759804999 -0.005269804215293753 -0.003004794934675691 -0.006936563060948976 -0.0005666120030194744 0.00680013543354695 0.008492708060496281 -0.00283871921723 0.00378748132394564 -0.005572814448261063 0.0005252493772774068 0.001538429322487258 
-5.953176097766252e-05 -0.0004166948068393402 -0.0006455745869461418 -0.000719890391378725 -0.001143897612904847 0.000641467950494769 -0.001447359929203281 -0.0003601243154073479 -0.0001454094215281296 -0.001624457768719247 -0.003151017535830091 0.001682083305219624 -0.001113484775257434 -0.0007518044425014827 0.00167520318662412 0.001650282411364271 -0.0001324208037640665 
-0.000208357109634083 -0.0003259114741464913 -0.0006432681595785909 -0.0002705340362743787 0.000949694454972783 -0.004641159023522657 -0.001652737374051286 -0.001208418739433115 -0.000830153611959658 -0.00104995967622744 -0.0006837303709848537 -0.00148209680629603 -0.002270172411815682 -0.0005197874943589199 -0.002377447683684525 0.0002242232789148852 0.0002855031007030068 
-0.01017949390690218 -0.0009275829810622713 -0.003839406645641227 -0.0008733414193612012 -0.004336043491450592 -0.003884629323432042 -0.002520291523484433 0.002723116633531517 -0.002432951377375449 -0.001447902011522052 -0.004051891728122905 -0.003060897783840586 -0.01049547112103143 0.02317677495701469 -0.008740228346455475 0.002550331634208431 -0.0004105034797563253 
-0.004097594013500573 0.00865956033595517 -0.006312781011872891 -0.00347254096928245 0.002435446186792241 -0.005808971190924464 0.0006218045599692889 0.002683552480474174 -0.003631853065657445 -0.004970788114930012 0.01388592793975441 -0.00205971091584658 -0.004069284966773303 -0.006673919976893357 0.002322976137778112 -0.006819353910265813 -0.003085668631063315 
-0.0003428505257461058 -0.004108510232736807 -0.000539035293206509 -0.002019275600839651 -0.001918800115458049 -0.002376247437128279 -0.00019869148693751 -0.001210415421879074 0.0002829487253492348 0.001658292700925444 0.0004461199587571967 0.002541962316494441 0.006122782360546604 -0.005568941911242561 -0.001519426508238437 -0.001724503077394083 0.0002476860099625227 
-0.0004390271112067179 -0.0001960152423938745 -0.001707576484880804 0.0006641445574535754 -0.000610625861774483 0.002379621498270667 -0.002520824311385035 0.00439251766551412 -0.0005081469893682003 -0.0004271534834066017 -0.0009807751425543825 -0.0005972688959651342 -0.0003623972367006949 -0.00282701208013625 -0.001341952924913769 -0.001806916266887489 -3.899432339394688e-05 
-6.75087409658238e-05 -2.285542288360651e-06 -4.065758146820642e-20 -4.190023677913435e-05 -0.0004078878919393376 0.0001755295143805899 -0.000519258806530361 -0.0006952689072606021 -0.0001152795979249536 6.802202861285156e-05 -0.000130378491078587 0.0004272301556815812 -0.00101873105526481 0.0006549616123212295 -0.0009863318259557693 -0.0005007320861801353 0.0005387629734172792 
-0.007581569726753685 -0.001214751238801261 -0.003925240935965236 -0.002365173430855887 -0.00202655459832842 -0.001282270126276093 0.004880903714822915 -0.001344036361171662 0.007340618496792276 0.0005957757829192666 -0.0003655051459626021 0.0007492026411584517 -0.002375723268626718 0.00305613523853881 0.001247559042586426 -0.0001289511374489784 -0.00116657210139061 
-0.001461818220760465 -0.004864077759135261 -0.007037005026487439 -0.00116640705289823 -0.0002643142513973584 0.00083242943496132 0.008207234850809665 0.004932317332032269 0.0002604304736883938 -0.0002701572199411123 -0.003463424465706004 -0.0003380443697612373 -0.004209386545840422 -0.002034311593456666 0.001130279760342251 -0.0002046822912049899 -0.002001505857366921 
-0.001008301834594244 0.002805114638229258 -0.0008328824154228903 -0.001158413706953446 -0.0007879024037750095 -0.0003959059943065965 0.001245004165272276 -0.001934097179779634 -0.001514184872203115 0.0002672848970789607 0.002365812226659978 1.970804380560264e-05 0.0004083213670498915 0.00379660333901808 -0.001473943112745614 -0.002096946235784453 -0.001602903414648292 
-0.002789140617210196 0.002079741083710658 -0.0008828560160248148 -0.001942373389355862 0.001981848064530324 -0.003239256882786995 -0.0005630176496683811 -0.002690142787660198 9.210282359132618e-05 0.0002744071865762744 -0.002292617574616281 -0.0003013386035860246 0.0001337792870519374 -0.002672956868707377 -0.002045355044179834 0.001894766947700206 0.0004809454715020894 
-3.976558102381966e-05 0 -3.639580488243082e-06 -5.684572432338794e-05 -0.001588943039546392 8.161719427267527e-05 -0.000274737094213259 0.002705275963735062 0 -0.0007295819054389459 -4.172889076144569e-05 -0.0008883035613164421 -1.217377669187598e-05 0 -0.0004461125122592672 -0.0007747554167924065 -0.0001452890596708765 
0.0009733456663212717 -2.107389671493171e-05 0.00144108591840509 -8.231870036735619e-06 -0.0003963668716991476 0.000162617064198956 -0.002052551347088813 -0.0003825537776874988 0.0001181061597206418 -0.0001026314469736568 -0.00169424419120372 0.0007185856017812738 0.001022752508525637 4.882976408732035e-05 -0.0001317202372549238 -0.0003905341547065207 -0.0003788947794030021 
0.001149765377364765 -0.001755426647852168 -2.783915018002055e-05 -0.0006732944379727364 -0.0009362877888203784 0.0005650562791239431 0.006523975687432133 0.001231263778768395 0.0008295850144369857 -0.004089208289084097 -9.777078362710795e-05 -0.001440407597430098 -0.005928876623764426 0.002634830726028337 -0.002929246656589681 -0.0007641138301426491 0.0008105121361285759 
0.0009168902482001282 -0.001692486734080191 -0.001702276000658826 -0.002051739369167728 -8.722653883775758e-06 0.002873690423655867 0.002241220857375009 -0.001262515381064785 -0.002966920733645521 0.003682448964289482 0.01124322963265793 0.001026824554014355 0.002236180521389108 -0.003073992722833688 0.001662504858848828 -0.002719689572708669 -0.001982769743133555 
-0.0001177145162453308 -5.669256747275387e-05 0.0003292801545784276 0.001632389182340752 -0.001463965972661161 0.0005312199792151819 -0.0002043518522350312 -0.0004832200057537388 0.0008261131061081291 -0.0001436593200649817 -0.0007261532801378979 -0.001376298561966366 0.002123647744672508 -0.00291389538797803 -0.000508125360525485 -0.0003643126611078318 -0.000503996727039732 
-1.882443192337643e-05 -0.005696881904010982 0.0004506947700824751 0.0009466579300854709 -0.001706786962822663 0.003412487002581079 -0.001266103565929891 0.003152881909810394 -0.0002906142226812543 -0.001590024969235815 0.006222524866927957 -0.0002242963785001699 -0.002163262643005451 -0.001995164659633019 0.002060651521510023 -0.0009208935568919452 -0.000974448427212177 
-0.0001236683191787447 -0.001304437989232569 -0.0004297330429937626 -0.0008173381654586624 -0.0002918745503987173 0.004558117868331072 -0.0004340796032251912 -0.0005724802125958464 -0.0003560571630967484 -0.002054341308723806 -0.003007279355202742 -0.0004510806404386092 -0.000203568534667829 -0.001631785452749567 0.004381937348926398 -0.0003722457711495949 -0.0003832654874497608 
-0.0006414112087548084 -0.0006143424685411922 -0.001103988476968673 -0.0002219551238940983 0.001505123724154463 0.0003310503496919737 -0.001290366599452886 -0.00254286250186096 -0.0003769350952272032 -0.001561082291780315 -0.002285316891260636 -0.002408234337262058 -0.000476769761638686 0.0004375406389205952 -0.001630383173116567 0.001616185597647543 -0.0001054053736304969 
-0.0004034260290245465 0.00330991902451356 1.694065894508601e-21 -0.0001962902814919508 -0.0004040435579319287 0.0006206066656493981 -0.0001136389679925104 1.937730729576762e-06 0.0001791994408748438 -0.0008691972049084815 -0.0001235068872329941 -0.0002099124046161914 -0.0006578809948197758 -0.0003076723541194251 -0.0002530788350012235 -0.0007917047618055157 0 
-0.0008352573685004962 -0.001920700121515908 -0.0008375763754832627 0.0006302053114676457 -0.002093260196077953 -0.003009184559918407 -0.0003703364003587143 0.001142715463168621 -0.001010923231885505 0.002825821551965636 -0.0004972299224480036 -0.000215135583843062 -0.00299446920682576 0.0009051157577186174 0.0001596175358832467 1.699282930554539e-05 -0.001109732829672787 
-0.0001377315566896893 0.0003561065000743645 0.001336701059578496 0.001712183425502623 -0.0003790627648509024 0.001831532931606943 -0.0003500744052735599 -0.0005027775879496847 6.417705639316873e-05 -0.001140153695925074 -0.0008838059533882408 0.001428995585568035 -0.0006905600285008784 -0.001894357760863768 0.001306722732196743 -0.002324526522343618 0.000814294774456418 
0 -1.70599183335292e-06 5.082197683525802e-21 -1.676567569749862e-05 -0.000212748851467932 -0.0001636669092640258 0 1.355252715606881e-20 1.828069153742191e-21 6.981658489204032e-05 -1.355252715606881e-20 0 0 -0.0003031993198981323 -0.0002859423719830753 -3.223725228031601e-05 7.34714159209762e-05 
-0.0003568168768315981 -0.0006876723110766888 0.002328165067752126 -0.002373030323889083 -0.0001042655837499948 0.0001251826771856034 -0.0006925611639164617 -0.00122251869760526 -0.0006111897661814711 -0.002246132304220827 0.00236082437979407 -0.001980223869237718 0.0005512229981638377 -0.004022206914817938 0.003171891039838394 9.644447684290885e-05 3.277464077387895e-05 
-0.0004501478359212168 0.0003906067882143443 -0.0001206165808141416 -0.0004108367544130133 0.000607868959859838 0.002481848464456367 0.000182933995954724 -0.0003866952360267745 0.0005237961228252857 -0.002455485193065949 -0.004441322750643949 -0.002124110737790098 0.001715123024438467 -0.0004307785650602336 -0.0004900930616923197 -0.0002792693395883475 -0.000544377993513927 
0.0003641105215874891 0.0008074290527244311 -0.001552428689689628 -0.0008845813797865346 -0.0001343107804663219 0.002901753163675263 -0.0002050983593866433 0.0006779874648424151 0.004975454141148783 -0.001166022549340792 -0.0007704049929204668 -0.0008904999857149397 -0.001276794319094144 0.002656729591765693 -0.002038460486240612 -0.001572648709498073 -0.0008451188546760923 
-0.0001396919454958232 -0.00214862222219235 -0.00158563563814494 -9.109497484828333e-05 -0.001062910896218657 -0.0006340622724031618 8.876132235926538e-05 -0.0007752928639147071 -0.001488797884732564 0.0001607492177829509 -0.0003954995474953177 -0.005356088896741112 0.0006459098920453815 -0.001153042746815565 0.006313900364020216 0.001413573944662769 -0.0002587792106806613 
-0.0002846441735788299 -0.003151812543720118 -0.006972753929789761 0.001436934611696487 -0.002134021660465265 -0.004083218518622334 0.001592130492975911 -0.001959781445038955 0.004024383023609335 0.001307795367969661 -0.003342586553316033 -0.0001126454967339427 0.002392292511649028 0.0003250865775996202 -0.001132591935108744 0.00145358982250952 0.0002481984045366286 
4.393458535567603e-05 0 7.785076159530125e-06 -3.591404276552978e-05 0.0003099956679607029 -0.0006233614606921319 -8.246107665534293e-05 -0.0008289644912108803 5.929230630780102e-20 -0.0001766924625436999 3.208137287725663e-20 0.0002832865314981785 -0.0006270685332034875 -5.551738581506178e-07 0.0006311767240106594 0.0002105645560645369 0.000778887410843889 
-0.002107074789352184 -0.002513922088291077 -6.313825399628909e-05 0.00065998124139974 0.0003554809377458011 -0.0001390066641724087 -0.0007669065701893234 0.001359591220608034 -0.0003134764707097941 1.934541064608194e-05 0.004343022943417491 -0.0004494564347269365 0.0008565325709191158 -0.0006415198311903849 -0.002676656667443563 -0.002235949674937653 -0.0009479806179322167 
-1.058791184067875e-21 0.0002369164510117682 -0.0001976042697136758 -9.646439357104278e-05 -0.0007333150103240068 -0.0008727469221980354 -6.37501840382036e-05 0.0007551403779748225 -0.0001746794860540207 0.0007216532528521723 -0.0001668263130418123 -0.0001969220572071436 -0.0006247442787767816 -1.931852375698269e-05 -0.0007481846227955185 -9.005370286419083e-05 -0.0005066734099619384 
0.000687399686295542 0.001003831517248727 -0.001662932653885593 0.001224783276432875 -0.0009198857081274381 0.0008005592839866916 0.0003291266416749901 -0.0006714775372903355 0.0005852398876698058 -0.003427269789517535 -0.002254096178701916 0.0009999345213612424 -0.002365590934985178 0.003443785815046192 -0.0007690903834785622 0.00327157251262631 -0.0004769374352674235 
-8.544915414718188e-05 0.0007458061655437685 0.001271920586272148 -0.001071445703842593 0.001263361154501791 0.001316242603947667 -6.748967621653435e-05 -0.001418436689057379 5.649654028086586e-05 -0.001889782672255856 -0.0006737857230510386 0.0007025043769333801 -0.002375720774379382 0.0006427619564090797 -0.002167668856394096 -0.003038738710212826 0.001338480388281518 
-0.001530949581037481 -0.0005631148752461741 -0.002307275475399306 -0.001007325258865373 -0.001200440847472523 -0.00153779804525389 -0.001066795690788947 0.0003621410945878865 0.000928433875299687 0.001310220763163983 -0.003437873316670211 0.002742182533641199 0.0004630821682547612 0.000790938695926817 -9.08788423297603e-05 -0.001107079928060435 -0.0001645400436425215 
-7.509278230949332e-08 -4.825296740780819e-05 -0.0001204037658424502 -2.541098841762901e-21 0.0004631414788201359 4.068026138844124e-05 0.0004677137761410462 4.245770774777726e-06 -1.18584612615602e-20 -0.0003371906277244194 -4.325054382407962e-05 -8.02770785649009e-05 -0.001089484350671731 0.0002478847640744553 -0.0002728186941597565 0.0005233553769948114 0.0004543676707135307 
-0.00133347070160398 -0.0001498516069663964 0.0009197477668217279 -0.0006607979113652173 -0.0009437517665344067 -0.003274589330652425 0.002406401811717873 0.001376887968836533 -0.0009551931094628935 -0.001468983601976003 -0.001290874690807761 -0.00129826552889226 -0.008132658813019016 -0.002324603540371419 -0.0003947625355429653 -0.001564144435035402 -0.0005702204859678701 
-2.373624843388816e-05 -0.0001140076950404347 0.0003373698036664694 -0.0002429496350441794 0.0009608958598598215 -0.0005535159425298058 -0.0003454509543979211 -0.000236569719552716 -0.0001386784713374893 -0.001442930518904601 0.0004478542932732137 0.0006529294200498494 -0.0006015571760811274 -0.0004909167943054839 -0.0009653037292935303 -0.0006820053680685174 -3.436063553310858e-05 
0 4.235164736271502e-22 0 0 -5.249145942814593e-06 -3.466847585247234e-05 -0.0001710571309319788 -1.306132367493442e-05 0 0.0003327300204669218 0 -1.112123113038686e-05 0 0 -0.0001955095729446166 -6.078873210661691e-06 0 
-0.0001179181215212171 -0.001097677357317503 -0.0007527862704387856 0.0001254336888029175 -0.0002472590603930806 -0.0009579019116861586 -6.352747104407253e-21 -0.0006793485421112042 -0.0008635369187735443 -0.000145436404508427 0.001274379689630789 -0.0001236333889553364 -0.001025564942115306 -0.000254897541142534 -0.0006558019281742268 0.001089819553898933 -8.353147182870744e-05 
-0.001706657977826497 -0.002547081754861953 -0.006368281956737395 -0.0007997707669809821 0.00470446836780982 0.003402213749954147 0.009697370923811852 -0.0008013239939466714 0.002026548646100943 0.005373990881521625 -0.003789196501667543 -0.001755429158832652 0.007455729576116113 -0.009550361003777496 -0.00674558791897694 -0.00260297348328428 -0.0004705325015449015 
-9.096706838617694e-05 -6.945670167485263e-20 0.0004998324530801202 -1.694065894508601e-20 0.0003887666876326699 -0.0005055045746152709 -3.388131789017201e-21 -0.0008190122083021771 -0.0002710606588837988 -0.0001291268136518968 -5.184014907065067e-05 -8.012940923491653e-05 -0.00249849665010585 0.001827191953003034 -0.0004182489160917812 -4.798258225589518e-05 -8.493440984754252e-05 
-0.0006977359689487326 0.0007555778541205957 -0.0004178956068063151 -0.002000419803807735 -0.0009128720577256049 8.402160796349168e-05 -0.001874615752604676 0.00125037838145842 -0.0006170120542754153 -0.001134813096066567 -0.002966300584211764 1.383179135066222e-05 0.0002894137230182448 0.003040565140996106 -0.0008565333514394401 0.0009552062192514765 0.001271631966810767 
-0.0008050906511769782 -0.0002163999015906846 -0.0004886534078162402 -0.0006679074358118019 -0.001698074201349303 0.0002134628898208974 0.003421942271073646 -0.0009325659412321132 0.001396608458805258 0.002888207511400803 -0.001030503268650616 -0.001151653001764463 0.0006685426309272715 -0.008860198259364068 -0.001593394268280676 0.0001057158631407148 -0.002614442008504588 
0 -6.352747104407253e-22 0 -1.694065894508601e-21 -4.870439446712227e-21 -1.355252715606881e-20 -5.590463258196609e-06 0.0004577630998503994 -1.355252715606881e-20 -3.825046858107759e-05 -2.664226065075832e-06 0.0001051183846897406 -0.0002123089581547389 0 3.388131789017201e-21 -0.0004351959381398675 -7.785109102463212e-05 
-5.278660289841278e-07 -0.001177034502013306 -0.003131313304362897 0.0002906512155733917 -0.005784727531044284 0.008899324664256116 -0.004910809936349877 0.0001396956614337153 -0.0005980261650372248 -0.004767134644460131 -0.002823432476240713 0.004128878060486976 -0.002521298928536803 0.00473951328835103 0.0007628288166728208 -0.002196653312375094 -0.001745758713085812 
-0.003271160290089638 0.004906792132409263 -0.0005903661945672455 -0.001307037781073206 0.003876893618896782 -0.0003084527273667666 0.004400658276425663 0.0001468576697827416 -0.005759721869646437 -0.004832031297841858 0.004641222006887142 -0.0003529578977151754 0.006854533944986133 -0.006994681519105065 -0.005340580162676307 -0.008081510483654557 -0.003398033724942157 
-0.0006090939285282207 -0.002143533659756819 -0.0006826892806275407 0.0009249131771969617 -0.003774108227595569 0.0008809895306852138 -0.001746151223657351 0.0001604498304333861 -0.003237760835921107 -0.006203878160830839 0.00192045866999356 -0.001447919396901575 -0.001917481692069739 -0.001697735508133543 0.002474936722259489 0.002123138416874532 -0.0005286541766648717 
-4.322414342631229e-05 -0.007990591560623475 -0.006752614020080563 -0.0007811364973321966 -0.001317833809996617 0.0001630987952340052 0.002410558154272407 -0.0006949162077155056 0.001461593901456844 0.01196277988121672 0.001261196245721675 0.004121041407959119 -0.006365383913723415 0.005506451743966776 -0.006021557813782506 -0.001539853412555456 -0.002852142862505147 
7.94935309302884e-05 0.0008002229599628865 0.004245227154265755 -0.003411456482879706 -0.0003520510887486578 -0.001486188047834515 0.0009681432310641469 -0.001218375219894537 -0.001806997343107979 0.0006770449432315091 -0.0004483883832749545 -0.0004750626730673179 8.80660684108209e-06 -0.003131471846512871 0.001182782949752944 -0.001443512572750725 0.002598827058143014 
-0.008025910456558231 -0.00635036119107677 0.002455703912794537 0.003216029714032455 -0.003224739029575615 -0.0002554845567891852 -0.00594249249440916 0.002411717694982718 0.0005493885180933586 -0.002871263512951804 -0.005263422052206143 -0.002411488573688253 -0.005065037266542709 -0.01521755397902984 0.002226666460643791 0.000829937438336487 -0.002434283350515657 
-0.0002561303825824819 -0.0008691820404869301 -0.0001180658753210164 -0.001078269037679096 -0.0002645410198431973 0.001338233203894064 -0.0005824609171368033 -0.0007091703176674448 -0.0005934812327175798 0.0005386476641716137 2.710505431213761e-20 7.971441098585956e-05 -0.0003391146730383549 -0.0001555249755764347 -0.001039961504872487 -0.001119455589787295 -2.202285662861181e-20 
0 -0.0001584455114626589 -0.0003151326107207092 0 0.0002760031048531012 -5.357191135260775e-05 0 -9.222721001892063e-05 0 0.0005965713257542764 -0.000575610426680233 -0.0009227421863097051 0.0007246799862240444 -0.0002543692647128482 -0.0004353752497011562 -5.293955920339377e-23 -8.917638006761266e-07 
-0.0005490442975015012 -0.007255157016852114 -0.0005733049189488636 -0.001020394454346082 -0.003098311724735067 -0.002617651114887181 0.0002451805337267197 0.0004887229047061378 -0.001078085015509697 -0.005688178887968866 -0.000777714646761276 0.005064694138683909 -0.005846829912909392 -0.006344288058467357 0.0003884641472408271 -0.001441011686085559 -0.0008685311304708626 
0.003687871927318908 0.0007697941384811535 -0.005725749168854905 -0.002945002560122041 -0.00388210194349399 0.004067921463560404 -0.006737226960918608 -0.001918992617059659 -0.003523855404719984 -0.0008296982416208208 -0.003290753808908665 -0.006419642301290328 0.00157130439817691 -0.003011328246926061 0.003107998479953084 -0.0006386470059908585 -0.002778541534589622 
-0.0004226969095929934 -0.0003806686726292597 -0.0004668465050308575 -9.994007460158107e-05 -0.0004514221969652451 0.001727778022871065 0.0002956633521037213 0.000423054116506656 -0.0007817499228553676 -0.002600356872461274 0.0007293556256707342 -0.001931373096197249 0.009139702567846724 -0.006111380168637405 0.001400268484509459 -8.138206913792431e-05 -0.0005892050346887151 
-0.004807579401211958 -0.002961311900729978 -0.000983898258094253 0.001537282890309736 -0.0006733024569006799 -3.859149913478005e-05 0.0005097484510965186 0.0001110932163453616 0.00203005599891208 -0.000516986022377323 -0.0009627656611638794 0.00125565036765266 1.972415545423985e-05 -0.001943858433972047 -0.0005436356759339266 -0.001475963081242251 -0.001518779515623766 
-0.0005114555693093051 -0.000527646377484462 -0.0002485138398846119 -0.0006066397313724961 -0.000507172439727352 -0.0007182361326210567 -0.0003517461558433145 -0.0008810414386154927 -0.000190456660205402 -0.0006419628951112723 -0.0007436384281023188 -0.0005800275691709296 -0.001508524167719445 -0.000569172356694259 0.0008338765248382831 -0.0004880602786609249 -1.468643584109924e-05 
0.00260954146603168 0.0005302933206756656 -0.00146074992126377 0.0006792766788605467 -0.0002429057395309273 0.0005540223272909464 -0.0001543880488968961 -0.000518404836365377 4.949606195504852e-05 -0.0009142776611618733 -6.221090612407396e-05 -0.0007119633148605821 -0.002093560041912444 0.005195461431045687 -0.0005899755633296143 -0.0003097884461234093 0.0001054823619034937 
0.000498982049594688 -0.0008380813611353543 0.003396775557403443 -0.0007313753849890388 -4.674184264608967e-05 -0.0008432118092409211 2.213957282019252e-05 -0.0008926298829341639 -0.0008627257738075688 -0.000743339916471426 -0.00165832824269691 -0.001161470038399123 -0.0046404199853181 -0.0001471140852840421 -0.0004453136986976103 0.002873066780022358 -0.002606339221722116 
-0.0006885398769242288 -0.0004256322017329115 -0.0003726454187410784 -0.0004457490600660397 0.001028370595826869 -0.0001170723001450817 -0.00231194152639518 0.002447227780385771 -4.546668945182156e-05 -0.0002511510238890252 -0.0002843062570573457 -1.354132043063219e-05 -0.0004355992628026565 -0.001359386482816578 -0.0005302809171125122 -0.00120563229297235 0.001113930929264856 
-0.0005874491743216358 0.0001194177116673543 -0.0004182445071130461 -6.393238773254012e-05 -0.0001675743237140723 -0.0001603004900690149 -0.0001500875033236589 -0.0002754780965635706 0.0001091477640678055 -0.000149904311143604 -0.0005435260206266967 -0.000869746111074227 0.002618559958371811 -0.0004767248195372561 -0.0005255533450158343 0.001106879981422367 -0.0002028679569600544 
-0.002108203030378132 0.0003850103063408605 -0.004043821867763619 -0.00309936632460657 0.000821209714436195 0.007454019244177035 -0.003682204769789094 0.001145603717851007 -0.003038847421035878 -0.001661302006958103 -0.006376092557033302 0.001506251804462838 -0.001125870745852869 0.001857787220212088 -0.002999040972287637 -0.0009293138182236 0.001410845895908158 
-0.0001263948596132701 -0.002262618887437214 -0.0002685600713044178 0.0004977401028559665 -0.0004640418974811019 -0.001288550553416039 -0.001008633204168022 -2.169391646133588e-05 0.0006861604986666149 0.001436751482867798 -4.925170002314327e-05 0.0003574774363761069 -0.001096620776048394 -9.817974314667999e-05 -0.002582030358356415 0.0006542226137594892 -3.454617988733424e-05 
-0.0004455503612029701 0.004351493534160395 -0.002073851907676809 -0.001184981117908171 -0.000887643990954363 0.0001651341859726844 -0.002628656707197711 -0.0004673002162981851 0.001084064644610762 -0.001223110005018482 -0.0004303012704121251 -0.002339631032022947 -0.0004056839217681517 0.001607120972140832 -0.002390537248789575 -0.0005808766396099568 -0.0004846731533730407 
-0.001297788732744856 -0.001323294596419763 -0.001005235332215759 -0.0009606256380431914 0.0004025965658083266 0.0007334636166187647 -0.0007985015807431124 -0.0003007434757819413 0.001082980083886349 -0.0009731669654730488 -0.0003730358454308996 0.001903128491709669 -0.001913625111918359 0.004687898185591764 -0.001738257118634513 0.0002613937281801592 -0.000997740750725356 
-0.0001510860883666636 0 -5.226911975527479e-06 -0.0001400719128866692 -0.0006404746982670101 -0.000734256339449332 1.058791184067875e-21 -0.000240893700986597 1.111730743271269e-21 -0.0004211386698030085 -0.0001585455239104927 -0.0007324831563541407 -6.370480438673111e-07 -0.0002603139601530663 -1.231417563971745e-05 -0.0005981607287702252 -8.85637868968782e-05 
-2.287144870450909e-05 -7.709887176923946e-05 -0.0004329566710502098 0.0005959313799689287 0.0002237028484966593 -1.240997025843782e-05 -0.000877640839072273 -0.0004004004894422368 -0.00051791729395046 -0.0007104962855991175 0.0001859995876023078 -0.0001117188724583081 -0.0008690672199177269 -0.0002483191245287059 0.0005803611781855703 -0.0001145462511169544 -0.0004601653536202101 
-0.0003785935261552968 -0.0005038508426974797 -6.277626925958004e-05 -0.0004280261538117529 -0.0005460021056800497 0.000483052816128639 -0.0003946512839979491 -0.0004872298924980856 -0.0006290758788528955 -0.001531785060807797 -1.381075696304515e-05 -2.744954377547352e-05 0.000119082993100742 -0.0003463312790181856 0.001155887352822703 -0.0008611426444756734 -3.896351557369782e-20 
-0.0001223228563067273 -0.0009137415139033944 -0.0003572712438869808 0.001583296968888677 0.002327116404723222 0.0008526826938944176 -0.0003753292434069489 -0.0006351024309812184 -0.0003389500267896122 0.001269270391953732 0.0003319602069795735 0.0003771600383591488 -0.0006019970701050312 -0.0003693789240889632 -0.001094971252974964 -0.0004034783753372843 -1.425109887943946e-05 
-0.003000231943396233 -0.006435905928705071 -0.008764472083846762 -0.0008944933639918638 -0.00499140167559092 0.004438376954972878 -0.004482354113212962 0.004566708225620295 -0.003991450018526771 -0.00204169385306223 -0.005168172244264722 -0.00741558976383064 0.002670842657223139 0.004313368236607583 0.004323936800148669 -0.00309306519385322 0.002117340336226084 
-1.355252715606881e-20 -0.001398871822689899 -0.0008073871107838608 0.0005659153355821277 -0.0004655898148173116 -0.0004618078891005001 -0.001977464779303175 0.0003022705212018566 7.623296525288703e-21 0.001080218209096432 0.001671539053486077 0.0008037399758718702 0.002338168423949722 -0.0003079515758248975 -0.001075025031747861 -0.0001569104136514482 -5.588913850471194e-05 
-0.005284800685245638 0.01173201742658373 0.00033368182775756 -0.001315344672038206 -0.0005445825631074826 0.00308524192417854 0.002113425062093915 0.0001940874429658089 0.007017657331553186 0.004095791182254924 -0.006851644544505139 -0.002660362684276302 -0.004603773234272459 0.001980336773707379 -0.005099218542831743 -0.003834030810078964 2.861330137908553e-05 
-0.002896956521856085 -0.001023844681353354 -0.0003613262729088722 0.001053175780378371 -0.006166006810939172 -0.0037731404958693 -0.001866311007860232 0.000608546656193421 0.002991039217574139 0.001922827412779476 -0.0018306885440303 6.195321309653408e-05 -0.004919719339105241 -0.007258724871467628 0.002253684773033432 0.00576243481485714 -0.001832158689705287 
-0.0004541852026585137 -0.002139869111911689 -0.000788123787515403 -0.0003884110710431237 -0.004970871942027911 0.01145380273473709 0.009922437678612353 -0.0011589108748259 -0.005584181536646745 -0.0005884662384903753 -0.00221501755627702 -0.00110602432039117 0.00397502585020411 0.002733020894480724 -0.004531305953012515 -0.0008572005226741128 -0.003745465668411769 
-2.964615315390051e-21 -4.972030444565822e-05 0.0001354611851058826 -1.01643953670516e-20 -0.001772434408578157 -0.002559747904026963 -0.00171450814770776 0.001961003670893895 -3.388131789017201e-20 0.002114318598461016 -0.0003282999650049193 -0.0006550584082358638 -0.001759476805754399 -0.001154021737247749 0.00179326960276884 -0.0003496671902305767 -6.776263578034403e-21 
8.470329472543003e-22 0.0007448552491505866 -0.0001959431459441575 -0.0008323721804073166 0.0003809952714954141 -0.00179797761581179 -0.001412159550306271 -0.001422834049029206 -5.081706037416685e-05 0.003411017301511477 0.0004077483001150354 -0.0009341125960698136 -3.439581349680149e-05 -0.0007481894666345382 -0.005693844493823178 -0.004280355718082019 -0.0001725956931967104 
-0.003504909281896389 0.01131309000245714 -0.007442394397643086 0.00353142019971696 0.002971801254302312 0.001706085859014029 -0.00532359213630959 -0.004460553741518304 0.003335596742827602 -0.01386073629026325 -0.007220907881227005 -0.01114851406366553 -0.003691502765975145 0.004953856958513391 0.009470115843921897 0.001726290361983728 -0.004814846086467223 
0.004407258417674505 -0.002911737768699181 -6.495402168581065e-05 0.0003483548895046465 -0.004354776198892482 0.0009256661064165417 0.002895164573246161 0.001186055691649892 -0.003923420335643281 0.001839343938418531 -0.002294182034804417 -0.003400999533066658 -0.007076012173886759 8.828833536863237e-05 0.002898893708912942 0.004741397423144255 -0.001846458824109153 
-0.005684376162758286 -0.002263700056144023 0.000687451453299624 0.0006805063835874294 -0.00176389333715318 -0.0001038108203984219 0.001932397291639116 0.001430429148431754 -0.003264095964103835 -0.003281728700036578 0.0004991204911675461 0.002739646741218394 -0.0009621818508828605 -0.001832502079900776 -0.000426026661655904 -0.001484480953698512 -0.0004749609279656894 
-0.003225594927557556 -0.00522283635702492 -0.005154999538117124 -0.005381602966468841 0.001747024518796499 0.001878902969272828 -0.0003884721894435743 -0.0007640697403068625 -0.00372499284782201 -0.004993470936941681 0.006227124240226732 -0.0008691931368222305 -0.004032173512065952 -0.0008643464505129063 0.0005471543420807084 0.001542632950882473 0.007074618579907668 
0.001993007017539895 -0.0001062785159390822 -0.0008093618354981069 -0.0007867002833519629 -0.001053246587714511 -0.001261165600504029 -0.0008453401472518765 0.0001818737891406904 0.0008869204750820803 -0.0005229390499926936 0.0005430890277589354 0.001645546895055622 0.003443139135181697 -0.001896142256237516 0.0001968094413522102 0.0005014278139667121 -0.001903127884989481 
-0.0001672131845170833 0.0004706707707827244 -0.0003091153028361928 -0.0001047166854635934 0 -7.527681833355145e-05 -0.000198450838898388 -6.776263578034403e-21 8.470329472543003e-22 0.0001870346551547553 -0.0003336484801442507 -0.0002688830637405541 8.532879523677582e-05 -5.082197683525802e-21 -0.0005034962883219443 0.0006350084488133873 -7.890419048587702e-06 
-0.0004805818488096791 -0.002574233751096066 0.0007059571218026518 -0.0008376579278142403 -0.00144936641248748 -0.001429974959175027 -0.002312173947478585 3.823021649446716e-05 -0.0001918774768102216 -0.0006948746340852256 -3.851976863947475e-05 0.0003795526192230744 0.0002979278199683807 0.000151941149048348 -0.0009473737210407963 -0.00294417313549038 -0.0001932739905838658 
-0.004983461342248248 0.006058630261973156 -0.01035307164093631 -0.002436534983722218 0.001621402022454909 0.001039358242896165 -0.001195240007442137 0.004312815633354726 0.0003008192670375347 0.0002752040079383728 0.002899675491068742 -0.005912404657592735 0.004805848289604962 0.002536271937772867 -0.002822034259590563 -0.002709308631200099 -0.001036130607841338 
-0.0003980464305718035 -0.001915427528294637 -0.0009292424475204083 -0.0002291483118758333 -0.0008203811382674215 -0.0002350476277486424 -0.001580939026629483 -0.0002371816590769916 -0.001435713851289298 -0.0009318609300856808 -2.073735566390388e-05 0.0008924746422450897 0.005074998821565732 -0.002637498247146959 0.0003243591165894638 -0.0006350205316646367 -0.0001438164920441129 
0.001625164657110757 0.0003522994208110219 -0.0003311260161102468 -0.0003752930480280455 -5.490986130425421e-05 0.0007783104050263155 -1.792117638985493e-05 -0.0009051521912902668 -0.001268874382998601 -0.002200786117936253 -0.00023997460114269 0.0003581305912341539 -0.0004295306124379099 -0.0003183015680950766 -0.0004687533207485214 0.0002816487766839351 0.0008311959949919202 
0.002157821151237533 -0.001771949232372571 -0.00159500052182966 -0.0007992373344879736 0.001496757605090292 -0.003204678508192009 0.006567119221929744 -0.001459050453805111 -0.001176604641048165 -0.0002155001644202698 -0.0002338053272613177 -0.003728111293166887 -0.002952378188579632 -0.005223570463608211 -0.006343031383011326 0.0009378228097568497 -0.001433933043019535 
-0.000135156079091014 0.002485470770528732 -0.0004720565639613258 -0.0002115405295631913 -0.001969943515803373 0.002446275708398001 0.001483931940914869 -0.001227910815048649 -0.000232844279394964 -0.002323065242948606 -0.0008231264519863369 0.001618177078913248 -0.001599513571922027 0.0002642057741011325 0.002699190720445682 -0.0003010353898948818 -0.0006216576042906774 
-0.000127466537293383 0 0 -2.61432760962745e-05 -0.0001260750350609534 -0.001172525718197154 -7.944555688050991e-05 -0.0004285073437469804 -8.786240748734173e-05 0.001300868560535312 -7.690800930724411e-05 0 -8.087974731930603e-05 -0.0001855097291091897 -0.0002850606791834056 -0.0001827317854271687 0 
0.004175651925381267 0.000225573424921605 -0.000964120689493158 0.001562725218515154 -0.0007577426546964072 -0.002654326261659026 -0.001310534332287654 -0.0003939392687698308 -0.007338218743096441 0.0008419555961696086 -0.000550319662656522 -8.412217766253638e-05 -0.000751466812443355 -0.002305466799461803 -0.0006279203363558913 -0.0005263161536754414 0.0003404301679936291 
2.060672341992103e-20 -0.0009857332614998445 -0.0003960892409045951 -3.277700035294896e-05 -8.225199408555955e-06 -0.0003510401275253072 -0.0004214890243963061 -9.569139710806322e-06 8.551439905540086e-05 0.003980415199893423 3.460736162457073e-07 0.001536767595684375 -0.000386009013357294 -0.000888327792256412 -0.001800947823564062 -0.0005174706044141472 -0.0001568986982398396 
-0.0004330400251331014 -0.003163096879582675 -0.001487863246025429 -0.0009172472867748291 0.002973390131206127 -0.002508448911712062 -0.003851146736891498 -0.002544276818675676 0.0001570269269679448 0.002092164321158098 -0.0001917448431936464 -0.001243619271780838 0.003397057290955798 -0.005070946139702617 -0.003518236361979247 -0.003115932297441227 -0.0007532938167803435 
-0.000211703318685508 0.001014890319451587 -8.387375654173834e-06 -0.0006942921036968467 -0.001735965662922866 -5.412760647935395e-06 9.639670811304547e-05 -0.000124574697254843 -0.000490228659519625 0.0006850518704549515 -3.515078469028122e-05 -0.001919177873637686 -0.000273049439080857 -0.002951443325631161 -9.165505954327973e-05 -0.001449812666930621 -1.01643953670516e-20 
-0.001374009014948188 0.0007993434429076233 -0.002329638040479854 0.006524673444010186 -0.0006133511839575992 -0.001558902849722091 -0.001617677499923577 -0.001617571350111436 -0.0001780004899064066 -0.002748339373263217 -0.0003243668156420508 -0.001768515540561261 -4.3532907536665e-05 -0.004458359182679121 -0.0007460674677329048 0.0006222485708934225 0.0002102752590805859 
-0.00196437304101391 0.001922315224244924 -0.006799673732229155 0.002451565512782283 -0.000307655401737756 -0.003593510842785073 -0.007330669877627985 -0.002603545350160355 -0.002195406639305477 0.002674888253844628 0.005395867787442298 -0.002354211125524489 0.002335446986454776 0.005039475148650351 0.001891142508026781 0.001332332077059565 0.002265862985036234 
-0.003041186296047048 -0.0009103348568918977 -0.005176026825407594 0.00212845588973667 0.001267445406165267 0.0004753497838816823 -0.006189215540135614 -0.001400609222308777 0.009970931649984601 -0.001216277012829351 -0.0003518193647894815 -0.001459621286058033 0.002339020082367824 -0.001429139118750352 -0.00153926100165087 0.001230589057764655 -0.0002449063657266739 
-0.0002220066925726406 0.0005455875826478447 -0.0009503366074320321 -0.001563144567375242 -0.0005716847882877628 -0.002210668976480836 0.0009140091659998761 -0.001320087844083259 -0.000560538922040988 -0.00223761327139785 -0.0003749711161588635 -0.001260212276804344 0.001248005963567865 -0.001588235146787401 0.002320048825366237 -0.0008791583002883869 -0.0009505596005599638 
0 0.003247719333074159 -0.0004873028196556785 -0.0004310242842477612 -0.0009229206536853847 0.001164152079558766 -0.001629385387935167 -0.000248192477498405 -0.001207916614615655 -0.004929441836431979 -0.001497385304313221 0.000816646476924847 0.004008806117227335 -0.001715934100767523 0.002943153616769937 -0.001792021151102051 -0.0002826001789451097 
0.002771195881554192 -0.007709183809090822 -0.0003632140607048557 -9.270439810777999e-06 -0.0009809091902164659 0.001667784107875264 -0.01049959065572541 -0.0007945183289911259 -0.003540972940761703 0.003216780298408274 -0.0006360446259435354 -0.01176190179000515 -0.0009825963435571058 0.003986875660090644 0.002030637401435652 0.002000980813909939 0.00407447916766524 
-0.0002924234204159933 0.0005045295209741346 -0.001223542113599252 -0.0008522502906816872 0.003163364132793711 -0.0005127769792862222 0.00544453007270774 -0.0007681387310967617 0.003831126050156181 -0.001605173197474876 -0.0003932252604007664 -0.001810774224573435 -0.007023898767500753 -0.0007778252950462238 -0.002184907592902154 -0.0005017653920126928 -0.0008999182673887004 
-0.0001185666745715341 0 -0.0004100903409370334 0 0 0 0.003257628892768462 6.776263578034403e-21 -0.002068841593134924 -4.101597863031853e-05 0 -0.000973043771955822 0.001296662153041804 -0.0008007369709986018 -0.0002654787471381689 0 0 
0.001486290107569558 -0.001808761664677469 -0.0004349149805395534 -0.001291005769483594 0.007615846291163924 -0.008079167873585208 -0.00144154988936665 -0.002995061811332765 0.001129646109606731 -0.0002016747172504671 -0.0009825488213594618 -0.00110629941109521 -0.002190648883906928 -0.001256512443931272 -0.001858765001786877 -0.002029177888697258 -0.0004096103010097639 
-6.008030136796524e-06 -3.157883562336541e-05 1.01643953670516e-20 -3.558631291274004e-05 -0.0002850328106973944 0.0002577674149892602 0.0009586636699845162 0.0002445781446915708 -2.161435541351658e-06 -0.0001587462118451093 -2.973579131925817e-05 -0.0006293719775486009 -9.719490511120639e-05 -2.43612085496245e-05 -0.0007253508486606454 -0.0002791010462763565 -0.0001170305637999799 
-0.001430526034327165 -0.001135462473469145 -0.002696047441745437 -0.000568646367759576 0.006772116123366826 -0.001050079789859738 -0.0004508465274148931 0.0008781730219198335 -0.001093367913049948 0.0007335338962511528 -0.002886319576675138 -0.003040579854455055 0.002441562029934378 -7.936382259222584e-05 -0.004212654302732767 -0.002331833447455587 0.0004753034865117999 
-0.002691452854460031 -0.002353282902941414 0.007831993938595625 0.001316316425643438 -0.0009264996815824347 -0.002940130490785952 0.004779194453187236 -0.0007067135992434298 0.001522821246233241 0.001754730089490388 0.0004427606631480384 0.0001862510056752947 -0.01049631248403347 -0.00707316411726468 -0.0005256197888282589 -0.0008735810746105066 -0.001026589769257459 
-0.0004070938391650928 -0.002543347007925099 -0.0005986908574887639 0.0007043730825548386 -0.001999786677574726 -0.005233335495626661 -0.00247398666491976 -0.0008592115888460739 0.002237540324451433 0.0009639130655801024 0.003688948753781081 -0.002013866095088735 0.003198018105910297 0.0002629996184507056 -0.003461228985845149 -0.004963887186075514 -0.0001784378077369315 
-0.0001469911170112742 -0.000204613816858899 0.001100521967330767 -7.285872962104798e-06 -0.0001287937058430618 -0.0002100620303369707 -0.0006052095016613855 -0.0001213552665813047 9.880346910568325e-05 -2.596764576161917e-05 -1.347736945233992e-05 -0.0002352720186812507 -0.0004988013598798364 0.0006629692476578746 0.0002185688707458482 -2.589381092011528e-06 -0.0001837159339213378 
-8.470329472543003e-22 -1.052587395527332e-05 0 -2.381127934748753e-05 -3.813947505874895e-05 -1.676603103998854e-05 -1.04669362351418e-05 -4.181045353251671e-05 0 0.0004394618578116138 -1.868981289958258e-05 8.743734019473052e-05 -9.530995194453078e-05 2.752857078576476e-21 -0.0002881142158236872 0 0 
-0.0008013760826952874 -0.0001893683078429218 -0.0001091388362172685 -7.314523621658795e-05 -0.001383727048761974 -0.001196364013694463 -0.001575011618196503 0.001247771586935187 -1.314409664215968e-05 -0.0004410478943853522 -0.0001888631309471844 -0.0007254315828619782 -0.0005875877242071192 0.0001939712322565755 -0.002033700356576117 0.001929809663415793 -0.0002361200521697875 
-0.0002436971209743164 -0.0005233500045194857 -0.002333316783604246 0.001631409228644654 -9.504188040509656e-05 -0.001006096963707296 -0.003401523805124952 -0.001633203116589334 -0.001355752063796174 -0.0002491005923870668 -8.135752908059146e-07 -0.0008208882431827588 0.003724781763116836 -0.0003424535270416593 0.0002125138997416374 0.002018745663096744 -0.0003652048932238488 
-9.218809294281517e-05 0.002139683827667132 -0.003491027375830558 -0.0009347717658843281 0.003195392735655366 -0.000521684380992661 0.003896333877798472 -0.0006589027075332665 -3.258078527325642e-05 -0.002148740288804162 0.0008552118783817711 -0.0002805082221945428 0.0008455781723051275 -0.001018856209708014 -0.006492964325871529 -2.725442893899274e-05 -0.0003341526956592125 
0.000549072526565563 -0.002862943709031693 -0.0004349448222227452 0.002236110160827361 -0.0005467021435266304 0.001476142380498056 -0.003103225472199669 -0.0002845326074783602 0.0005997918872805025 -0.0001980714880431538 -0.0001474512703965013 -0.002714319313756858 -0.002041915582689163 0.001785340878505272 -0.00231203049241326 0.002454358490501098 0.001042733256847173 
-0.0002745459183091012 -0.003175052588416055 -0.000358861581595366 -0.0008465733824337512 0.0001324923559496886 -0.003484047741676198 -0.0006215102580202374 0.001123982332821813 -0.0001962003750908562 0.005577549859305513 -0.001573008398266485 -0.0006007139515437247 0.0007162450511181151 -0.002838292693187622 -0.0005358769686105805 -0.001734849545940744 0.0002694732333360321 
0 0 7.80001003039587e-05 0 -0.0001705452323561304 0 -0.0004505341013769438 0 -0.0004375799263646162 -1.376672519738503e-05 -0.0001421606763813432 -0.0003265953089716332 0.001847359659424189 -0.0008937670670806023 -3.388131789017201e-21 -1.736618125783282e-05 3.388131789017201e-21 
0.00221468477927365 -0.008498989590796887 -0.005979669036887894 -0.0003623425559439968 -0.006084508763590057 -0.002084968613529633 -0.0002898825533951798 -0.005815996422455487 0.001756144424946041 -0.0006276221768233503 0.004918182838519174 -0.001596891627727751 0.005681070572941077 0.004836441044243314 0.003003567526251438 -0.0004523645835532647 -0.000636028507336567 
-0.001422013682435406 -0.004125475029115225 -0.005768693735136285 -0.0005452182694945145 -0.001384735879947291 -0.0009729567941211027 0.005166161939440013 -0.002353257677994464 0.0004008787518713008 0.0040632512860399 -0.005294317547934232 -0.001886855025621 -0.007932481965720748 0.006381148006316882 0.001325966471969898 0.005698115057874162 0.002137951486042817 
-0.0004311997646026855 -0.0009642684203497475 -0.001537848124096711 -0.002328729669802562 0.001429439114615835 0.004602339671396173 0.00329912123288012 -0.005237345913352809 -0.001229448943332271 0.002824392057056489 -0.006454345699067028 -0.002382694652391775 0.0003625047414152856 -0.00574373634608506 -0.00447400494805425 -0.004432225040626681 -0.0001113713647621874 
-0.0002356799986747044 -0.004681844241031365 -0.001376240856982442 0.001627560907240739 -0.003750651481283628 0.0004562806046195909 -0.006339495801661281 -0.0005166801456419069 -0.0002399021754639129 0.006071709323565092 -0.005958467655859323 0.005244161538026117 -0.002421645368443779 -0.005055665892781916 -0.005686089833894957 -0.001982341406323313 -0.001262342610092243 
-0.002438148241184023 -0.006069800358448541 -0.001543515293321717 -0.00191841232069481 -0.003169917270567289 2.189079956827929e-06 -0.004772307384447463 -0.004266932913187456 -0.001373072594852363 0.003831335960862936 -0.002102247146594025 0.005834607341797071 0.003561116908023214 -0.0023764559808559 0.003855494828142726 -0.0008572805383638067 -0.001043604864377366 
-0.0006718596397541724 -0.0006883700067776407 -0.0002513172859199861 -0.001499177838535616 -0.003596082505407101 0.002800219275055944 -0.002631130162492359 -0.001494573455289541 -0.000864366636758051 -0.000361642946228702 -0.001062491756458333 -0.002327741798475866 -0.001914163924447272 -0.003441718258834636 0.002461166214114013 0.000868687343876769 -0.0006558311527890221 
-0.0001789235677501939 0.0002059075221543858 -0.0007549202661294973 0.000355854318427422 0.0008134659821873811 -0.0008929645679799703 0.00256422452644111 0.0001262549548964696 0.0002782294809102424 0.0006172243110166998 -0.0002451994706334335 -0.000584563442466576 -4.781401754471028e-05 0.001847105223572271 -0.002622000382144667 -0.0007155064202342526 0.0002388949699263959 
-0.0008335812610116726 -0.0008631389886414817 -0.0002145599183518142 -0.0006962896845518204 -0.0006652995670028117 -0.001348878595950907 -0.0005007688454501592 -0.00151706289593213 -0.0003690495634463864 0.002595741146196485 -1.058791184067875e-20 -0.0001845645603417863 -0.001315703796266503 -0.001930392617303491 0.0006076026485110297 -0.001084801717117763 0.0005979237117281582 
-0.001896754611261281 0.002852297121657753 0.006269527480839318 -0.003244267921101739 -0.006684280102094651 0.009976359056711608 0.007402669372502406 -0.005324801019860354 -0.003566001221423089 -0.004681374781594119 0.01462548552342975 0.0005600767685181566 0.005084226622290556 -0.01161400825201906 0.004506202192067496 -0.008731864042999117 0.001083793873698268 
0.009657426537293949 -0.001114038160574983 0.00179314162744468 -0.003650349276529403 -0.0001991953908663849 -0.003649665848539002 -0.004268885765584343 -0.001987062258363556 -0.01048619735474321 0.001549002526024783 -0.002430467827228803 -0.0007593881826110032 0.00269627273102134 -0.003145763046388848 -0.0008633125222333276 -0.0004857401448068231 -0.006390965951194128 
-0.0002244099917159096 -0.000225746372387761 -1.673398466016543e-05 0.0003184391341688344 -0.0007389081212939727 0.002853850175523749 -7.34844135155381e-07 -0.0004629974396363636 -0.0001913563620789817 -0.0005897244093626268 0.001592395318252402 -0.0008395207953589589 -0.0004335512856236532 9.812223933613825e-05 -0.000517300919741546 -0.001526235101827768 -0.0001285627641175769 
-0.0002292478918604246 -0.002587888887317604 -0.0005662198034707294 0.001454370074835609 -0.0003340545892098278 -0.00318892015460252 -0.00344858833826854 -0.0002238468002467339 -0.000565649340836596 -0.001572474360037648 0.0001237779241928165 -0.001490564133506458 0.001732738132355143 -0.00262569589385257 -0.0007439265974314746 -0.0002736397003017055 0.001824363971471814 
0.0002626862494425551 -0.001601806262077212 0.0003790091921468908 0.001025563333754524 0.004131317464161495 -0.0002797249346932844 -0.00111491426842728 -0.001187019452188189 0.003461913048134284 -0.002829330957555607 -0.000995780369509622 0.003296354392901559 -0.004183908112271383 -0.00151502755438151 -0.004112305564453769 -0.001988492297075363 -0.002228943862760323 
-0.001094718021990849 -0.002226018394558676 -0.001835614556483971 -0.0001246586815147459 -0.0005162935195958074 0.0008252282826896858 0.004227651629037032 -0.0006999135793241839 -0.001231623361375548 0.0002423161118959327 -0.003413251477630491 0.0007602940404827552 0.00233915939370977 -0.002766511617901449 0.0008721410883529686 0.0008445760813605851 -0.0007759685308255847 
-0.003362434016894 -0.008265380136891622 -0.01152658466780654 0.00680549818648859 -0.00306458149121656 0.0009204638880898809 0.002552580965845071 -0.001909190610538399 0.007597951265276262 -3.603842758841499e-05 -0.003292299294833181 0.00199115993641034 -0.008912861636773311 0.002600117076372697 -0.001609805635842135 -0.00329938746153254 -0.007615668512372018 
-0.0002853902233664551 -0.0002352020345437934 -8.068171980238447e-05 -5.202902921931635e-05 0.0004236204926808822 0.0006142641730947638 -0.001537541052141864 -0.0003278267498874434 3.388131789017201e-21 -6.063505943498932e-05 3.490965425310028e-05 -0.001346519478401999 0.0002832889714296186 -3.184448082271372e-05 -0.002640065219992918 0.0007275208691918456 -0.0001898353653094246 
-0.006572097411643486 -0.006198896001499837 -0.01080849362844265 -0.001600088586153577 0.0008910229455973501 0.0003895832846467966 -0.007425490324424767 -0.000203413747037076 -0.007476941746206455 0.004311121750596852 -0.005096708895414426 0.001485140207800467 0.006734880233707537 0.009711600862618658 -0.00284030914289569 -0.004474068987557512 -0.001977557582333245 
-0.003171652528615369 -0.004030960300772596 -0.004839679674188812 -0.003786991259960679 -0.003494925154186959 0.0002945890882725142 -0.002413272364637306 0.0001094269453252589 8.460738279745603e-06 -0.0005177270932424299 -0.001113028303271341 0.002123693480422677 0.005398562777407495 -0.01427600257308445 0.007873810224028865 -0.002212895316006938 0.001826799773650049 
-0.001083970573991977 -0.001088717380612537 -0.0003798026996527644 -0.0009617333072343371 0.0006629626525601828 -0.00141888091821918 -0.0008386861558949373 -0.001306782961265888 -0.001023966747835943 0.0008782803139841376 0.0008714431887773685 -0.001528771520459133 -0.002739379740375613 0.001149464363187269 -9.519371597505765e-05 -6.148023518304665e-06 -0.0006518810588427744 
0.00283236758436126 0.002064277490304077 0.00900973356528739 -0.0005980155501080954 -0.002251946113945448 0.0002067907950833425 -0.0004978493798222584 0.0005444216850799618 -0.003753764708504327 -0.001181296522541812 0.0006712793755461373 -0.002044490458796656 -0.006588071866992246 -0.006697398110746714 0.001156899649114128 -0.005064460333419809 0.003747004082657802 
0 0 0 0 0 0 0 0 0 0 0 0 0 0 0 0 0 
-0.001657588867431029 0.006021939347893198 -0.002046097572481971 -8.544281868101274e-05 -0.001589891711306571 -0.0001328849863698441 -0.001313629521494902 -0.003023115665340166 -0.001361814856412713 0.004157183614699677 -0.004000012017617003 -0.004741414522116651 0.002563668720309395 -0.002705418903341711 -0.0005555044958455977 -0.00284731477926002 -0.001279653315843757 
-0.005186926353688619 -0.0008016285467548349 -0.00368688507538442 -0.002634871902057918 -0.001526807771973784 -0.0002001432809917288 0.008964425387484385 0.0002071003231972465 0.01234686979861318 -0.003481350651394195 0.0001392386923970585 0.003263817561044563 -0.004599377768233535 -0.005477834156638105 -0.002164342715747897 -0.002451178453566275 0.00215106843774554 
-6.782543229772086e-05 -6.284170890930907e-05 -3.609943022627879e-05 0 -0.0003194398313133163 -0.0005274119879842287 -0.0004379995523153095 1.409796978851237e-05 -9.994952506856622e-08 -7.156536315991566e-05 0.0003421316765652038 -2.668153783851046e-20 -0.0001706313796307688 -7.981478055280457e-05 -0.0001712904135400676 0.000467555202502804 -3.094983691058785e-05 
-0.0006803632201418258 -0.0009374468669864738 -0.002706784554225661 -0.0002274779518950074 -0.0006441723834216199 0.002107988667693619 -7.214357471990596e-05 -0.0001954745644068226 -0.0001260515875072276 -0.0003366467595557506 0.001110377577665203 -0.002833867877948806 -0.0003650580745224921 0.004502967372189791 -0.0004995535493003918 0.001698134077609921 0.00151848969138621 
-0.000541470952097916 0.003587551862207295 -0.001197757080661557 -0.001870770821551487 -0.004251446577890061 -0.002823989526284958 -0.0007605809962971068 -0.0003749433288490402 0.002148986862883387 0.006766889801648494 -0.001577247049612953 -0.001671318636922735 -0.002358126789948443 0.0003039373861020094 0.001486122382950775 -0.00198140987825892 -0.00124309373144853 
-0.003184255150724431 -0.001810013289321624 -0.002131862667148907 -0.001923090282381253 -0.002452983970252121 -0.002360753486521648 0.002851204299275763 0.00519023130740323 0.000565947721463176 -0.00110490313342492 0.002266057880770832 -0.004852797525959798 -0.005425583463174852 -0.002800107144588882 -0.00214766762743365 -0.002429381173458557 -0.0018431262703994 
-0.006657492617417762 0.00179502542857963 -0.002475553563478023 -0.0004800487056576723 -0.005093343770222991 -0.002754744780906572 0.005313919950990073 -0.002961556977673931 0.001787318213761718 -0.001227312308008649 0.004930209677716126 0.002528727384201706 -0.002260605487237573 0.00234042656159362 0.0006149689014061885 -0.003921716847500846 3.20898117906582e-05 
0 -0.001295397679000859 -9.898398472345321e-05 -7.439444253902687e-05 -0.001854409363375562 -0.002039187916578099 5.082197683525802e-21 -0.0002388058955491374 -0.000131901276058212 0.002149265733299824 -0.001759317263269358 0.002400228447669738 -0.001167322913053079 0.0005477926044441843 0.00329962162453741 -0.0004214959246060575 0 
0 -0.0001066263434078279 0 0 0.0006431290367800798 0.0002643097809363893 0 1.0589700429947e-06 0 -0.0005206783451900944 6.776263578034403e-21 -3.047553007998704e-05 -7.653393354283637e-06 0 -0.0003924957938659324 -3.518724909246143e-05 0 
-0.0006150539030878356 -0.007771802390392051 -0.001416593605806722 -0.002153778667735395 -0.001405356060426848 -0.004136605249358626 0.001716001261512464 0.0006809452135533408 -0.001111020140962548 0.01281513992791022 -0.001624591837746716 -0.001892727225321099 -0.004127830117484166 -0.007106955263766294 -0.003546509075411857 -0.001895794762631549 -0.00264298908542618 
-0.0003786885715457189 -0.008261229789008987 -0.003171344315083551 0.002229897546505715 -0.003719944587631455 -0.002633915118782748 -0.006865525294707385 -0.001659469792613551 -0.003029571980326926 -0.002073657943658652 0.008358784501650488 -0.0006613169825401953 0.006642246018395592 -0.003609427695167479 0.00379217205129672 -0.0007135322080259009 -0.001952754342099428 
-0.0008633387180769941 -0.001285172592705777 -0.0002046263536501396 -0.0006239400831562963 -0.0007653242534270867 -0.001707746477793225 -0.0001572544836090875 0.0004893769122652628 -2.254804482713068e-05 4.315614240839883e-05 -0.001859995883215655 -0.002124725227631364 -0.0004865757882469031 -0.002891520659449645 0.004768988939096129 0.001285454936484457 -7.746346451200282e-05 
-0.0001537368472018592 -0.00319989965584213 0.007575231320403146 0.001285133864879221 -0.001313533701145973 0.0002320509371376714 -0.001732443781164161 6.935931588409283e-05 0.0004673577106929254 0.002463830931513445 -0.00337421585707595 0.00759334794160261 -0.003977490457052309 0.001885503250459565 -7.416146357434392e-05 -0.0004185952738689283 0.001856559224599735 
-0.0006202729932200459 0.0006741476738203835 0.002413495427759719 0.001569995866391365 -0.004704475129066917 0.002881778719915013 -0.002449202568146108 0.0002890527366132861 0.001053641745341547 0.001142476955402423 -0.00355994659409482 -0.001050622896355444 -0.0004035835576999445 0.001358050386600179 -0.002805854519761497 -0.001736494815953762 -0.0005069284964435302 
-0.001697168903668397 -0.005427066075036494 -0.002688093526592996 -0.0009784995336148802 0.001031212970299431 -0.006565592081780191 -0.003789334781253452 -0.001075148597250962 -0.0002280347338945212 0.004672727101680794 0.0001396592295012852 -0.0008248099505047471 -0.001997513976834544 0.001581215347156816 0.0008055854029882809 0.001082291040901786 -0.0009693040554328605 
-0.004654606413831037 -0.005948776575096158 -0.002089687518713496 -0.004436022250742766 3.973777595208606e-05 0.0008257884769427797 0.006027000504953296 -0.0002857141630034261 -0.00697915020655038 0.001737472872516294 -0.004993364028395292 0.003404653981756892 0.004982262222362322 0.005622039012140211 -0.001613961746470553 -0.007033068887282945 -0.0008983505102332757 
-0.0003445595369881373 -0.0001974852619789494 -3.042733487117851e-06 -0.0007094876768124889 -0.0002650199352192591 -0.0004888857372765366 -0.0007396058722828603 -0.0002204520711040537 -1.85886482119944e-05 0.0001996872972681856 -0.0001102284232333329 0.0008448605089399204 -0.000842478286257258 -7.572832426513783e-05 0.0008864083869327543 -9.53060217434621e-05 2.77326329687697e-06 
0.001201369072921286 -0.004597950620464528 0.003923560586376058 -0.00291964357843538 -0.005448569738538438 1.877205370512257e-05 -0.0008236972187466493 -0.002943029989464028 -0.003052875513579593 0.002785300337274797 -0.00079736214979693 0.002999860835236233 0.004711560426244197 -0.001208500142358513 -0.004690099577438071 0.003735770582418432 0.0004068503111658072 
-0.0001155712966747536 -0.001729761098509519 -0.0001621408475484701 0.0008436632812871046 -0.001300212672146332 0.001243330162671908 -0.0007248238769187753 -0.0007525062269348696 -0.0002156214545289723 -0.001425691581675024 -6.065957099637711e-05 0.001821727660741401 -0.0001402006134716715 -0.000752110491510812 -0.0008038841175740675 -0.001758307409609373 -0.000340730928513123 
-0.0004483522360835604 -8.611663004873734e-05 -4.635139945685862e-05 -9.581318767442179e-06 -0.0002471401917926987 0.0008812019758834856 -0.0005315578154303823 -0.0004839058846345545 0.000841109013935913 -0.0001305407114639549 -6.463303702502021e-05 -0.0008227349602535211 -0.0007585642414251007 -0.002338183868479954 0.0007871447566720255 -0.0002780278457058811 -0.0001774699440891924 
-0.00551394466146497 -0.00369640882542856 0.00180787742283664 0.004746944616616697 0.0002530355472724325 -0.001767502248928534 0.002528113394491629 -0.002625702285611915 0.006652476319820322 0.004196570146323474 -0.005272761599997863 -0.0005009741436399626 0.00185813808413257 0.0001481958010184906 -0.004297228189807498 -0.00208162101705397 0.002225713478597446 
-0.0002591877057077087 -0.0008454936999090248 -0.0007651816523266249 0.0003336375359703625 0.001854852551020311 -0.001169250302011885 0.0006121447337236704 -0.0004591241838016236 -0.0006789371410504461 0.005657357765533885 -0.005137818215484078 0.001304556582448017 -0.004316353795985657 0.0003468710497964533 -0.002533978493088309 -0.002986219464167316 -0.0004874354773590144 
-0.00416239850518519 -0.005037615958122578 -0.004125128367021263 0.001589145084259766 0.008861977658368613 -0.006330566691718777 0.003847044997225087 -0.004584454884869002 -0.002103716566917748 0.001030939770186119 -0.00147605999253173 -0.004909490333446237 -0.0008919513464924078 -0.004696533571595669 0.004322282416609765 -0.003579354636080018 -0.002013572016284671 
0.002750636867911291 -0.001431274303509748 -0.002629036065735212 -0.002672394949520391 0.001534378164203022 -0.002155065789432957 0.0006407876283618648 -0.0004418779350019106 -8.078100761828092e-05 0.003100865923030789 -0.002773466488464091 -0.003289269483519526 -0.002671034719839561 0.002691886992692942 -0.003216308186703686 0.002855642385403399 -0.0007200515130262979 
-5.569885152056312e-05 -2.428733621483461e-05 -0.0006087561345737954 -4.184531315072196e-05 -0.0001962933110205286 2.640656836114279e-05 -0.001887905424997048 -0.0001316879262890434 -1.23469535551869e-05 7.005157607793686e-05 -8.155959295358137e-05 -0.0001232989521067577 3.494010907423989e-21 -4.698971324262958e-05 -0.0003084489760128245 0.00215697623268975 0.0002271505212435473 
0.001575571181441644 -0.003765202130060319 0.00466062176940552 -0.0009734942867024709 0.0009500790282741229 -0.0006289484861061426 -0.003237494308243343 0.001678447319163017 -0.001567520338890462 -0.003746785246562459 -0.00550076040351403 0.007607033631067758 -0.001323834484078037 -0.0005101267212455842 -0.002326482219671851 0.006428489436995853 0.001875893985911229 
0.003791409047943561 0.00460430898231658 -0.002433515151497259 0.0001297601761001812 -0.002507147411116316 -0.005195279771322729 -5.197803670056871e-05 -0.001191310101397113 -0.006156996804750823 -0.001833223540840919 -0.003089893147441848 0.002179457577429729 0.005025249795278908 -0.001583011809301114 -0.0001271732239444668 0.0008027982285315242 0.003662615598788537 
0.0002304757959508898 -0.00111004605592966 -0.002166255271960333 -0.0001265769133307422 -0.001019907681537278 0.0001462604641589167 -0.002959264018144918 0.002071202076530211 -0.00246909809123156 -0.0002454765909337774 -5.465307383897827e-05 0.003063556048231312 0.001685600731753017 -0.002761718862859279 -0.001103524210674011 -0.001806733467642284 -0.000791513828953416 
-0.0005163384590596385 0.001403312725296395 -0.001044879844266129 -0.0005798575705630019 0.0005768016947126037 -0.001317698912413204 3.828565036210304e-05 0.000117831796189581 0.0009087325061699104 0.0003410429147090414 -0.002017533100763824 -0.001443144597764443 -0.004366025475317055 0.005006703341948831 -0.0003058072483805608 0.0001163382387937736 -0.002204403309312773 
-7.122005904035358e-05 0.001456398049767551 -0.0002590570505727804 -0.000817628304046439 -0.00154567443422579 0.002870053805804336 7.971974167434175e-05 -0.001158300319872362 -0.000384719761828673 0.0001168419999194595 -0.00171238992421244 -0.001392197355378606 -0.002527049360991932 -0.002892023861279978 0.0004363866081905072 0.002915822505863545 -0.0005667318807366783 
-0.0004207017373343684 -0.004511800544866311 -0.0006788765929561681 -0.001050221769307272 -0.0008308093880047853 -0.001583451714590301 0.002754481829865976 -0.001247515110122243 -0.0002721266725267527 0.004148129985310813 -0.0004049606162170432 -0.00031171582100327 -0.001295530791075586 -0.00211880934241169 -0.004813950837018082 -0.001578926666075603 -0.0003611156214449636 
0 0.0004418184630152074 -0.0001193595286280782 -0.0002150283269171786 8.347474490552297e-05 6.411189136882037e-07 -1.270549420881451e-19 -0.0001807453976962446 -0.0005253459254317087 0.001539555935553676 -6.759212194018808e-05 0.0007673788940268465 0.0007771997324517322 0.001135707442589055 -0.0009306394696928095 -1.481544226066514e-06 0 
-0.002743278469118298 0.002246614432343762 -0.01231198518892531 -6.055041292499267e-05 -0.001543019225357732 -0.002437879505726374 0.006017966001755541 -0.0008420219479305122 -0.002508439354120528 0.003649611141881563 -0.004541928047584525 -0.005317192116870101 -0.001335680368843005 0.002784575755756328 -0.0009715374065048717 0.0007545137782056989 -0.002711978061308381 
-0.004261086501194321 0.006624375944672595 -0.005726548099793286 -0.003459728380273911 -0.002333832399182735 0.00587239536508136 -0.005531482909176268 -0.0003520370245445579 -0.00337515107135672 -0.002083502248257879 -0.004850811458842837 -0.001730099573281955 0.005850997841738098 0.00174934941306919 -0.00611248055479498 -0.005481987826437284 -0.0001797321734870831 
0.00253457275620041 0.002788859705783577 -0.001097599040087348 -0.0008011647918249481 -0.0001657554664822942 0.0001627741744745501 -0.0003101362611180426 -0.0003003349995223621 -0.0006150540567225931 -0.0006391471281710963 -0.001675789504237688 0.0009410337723110989 -0.001300698240376419 1.933065927394412e-05 0.0001700147795387641 2.144632479968904e-06 -0.001080269480787546 
-0.0002027304544443949 0.004223271376733924 -0.0007316727489263072 -0.0004679910879170352 0.0002966932556434937 -0.001402720540140812 -0.000636598057500782 -0.0002777787155444311 -1.83922514435295e-05 -0.000667587412850204 -0.0007783050328428226 0.0003715740450538118 -0.0001819503455594369 -0.0003263545141613776 0.002766305175865783 -0.0008353002010193308 -3.555911650359147e-05 
-0.004063375022183129 0.001323774274270489 -0.0004407739263516213 -7.201541576027749e-05 -8.223993726797341e-05 -0.003288167498189909 0.001064722595548675 -0.001292893586154108 0.004607133611568272 0.001518669600373566 0.001272524597716925 -0.002777201809400438 0.00201141135666679 0.0001497237647456882 -0.0004163110674666658 -0.005326236223337425 0.0004384527588910286 
-0.0005986236139723149 -0.0001185539141791832 0.001236068441018916 -0.0001131060935703826 -0.001368468220238047 0.004047971952059273 -0.0008812524499876468 -0.0001065127162776578 -0.001406806505231137 -0.0005230508082911345 -0.0007861624705326671 -0.001414312033358368 0.001501312288229981 -0.00231912030515793 -0.0005443730879587898 -0.0001495718697426678 1.871393681742286e-05 
-0.0003005434741205997 -0.0001036584438213628 -0.001472652600841967 -0.0001651988753817488 -0.0005299383835131601 0.0004550323212152883 -0.0001800077189584147 -0.0003050542944947649 0.0006359234631152733 -0.0005412014664552562 -1.654454579121481e-05 -0.0005544138373822132 0.001783261616581232 -0.0001335944096760416 -2.66283992512637e-05 -3.538994992753494e-05 0.0002599216467144499 
-0.0004439144543987859 -0.001765815238711462 -0.002273402663117146 -0.001765506353078579 0.001771350767252892 0.001818140850080721 -0.0005046130212498212 0.00183105658640855 -0.002018520154656535 -0.0007190290459144239 0.001122422201338473 -0.001659697779104152 -0.001870040587209326 -0.001223409325401075 -0.002515527450999783 -0.0004218426261001509 -0.0002550957021803703 
0.003417394618812948 0.002140821701618127 0.005830208300294052 -0.001810369553407273 -0.002380660280218022 -0.002810871554061125 -0.00439373362471841 0.0005817209532486006 -0.001701849245978357 1.97887443284568e-05 -0.0004287607090081694 -0.001447410833589621 -0.00308744921186639 -0.00205313191657976 0.0001009412948279255 -0.001286921059016379 -0.00145036990717657 
-0.002636519601681421 -0.00167607837589624 -0.001979006258144743 0.0003055517877182923 -0.003465005938941709 0.002288807971269245 0.007231255773986361 -0.005471846732199536 -0.006189851176573466 -0.006154339212712225 0.002143595792401963 0.00208538267771181 0.01004564914683785 -0.01500908418359662 0.00237867725651726 -0.003181120573471937 -0.007348801298138177 
-0.0002772160536701736 -0.001035138572705004 -0.0001389713069957324 0.0002747436803388621 -0.0001738650505857232 -0.001634842436406982 -4.805230411079246e-07 0.001197935618260312 -9.80714991884255e-05 -0.000234603569630818 -3.639291403874696e-05 -0.0001029860977310543 0.0002074960231583251 -0.0005137208561427556 -0.0003961434957843943 0.000208874766905158 -0.0003367588823715499 
0.007774674839013228 -0.0007399608201959546 0.0008164290610916793 7.509613729777276e-05 -0.001815715936320171 0.004668921338914596 0.001877711673959331 -0.001310893255144937 -0.004849175251584933 -0.0009732349791457536 -0.001937839052021444 -0.001681402667996085 -0.004225242463382523 -0.001388367490412064 0.001761973398044622 -0.002664246536507064 0.004465245001207533 
-0.00922450830218291 0.0006928883678812858 -0.002812281299958636 -0.005035603468118793 -0.0006648135060466113 -0.001670464256609009 -0.005617828413250337 -0.0006281598438462857 0.009755644522253101 -0.0003393141518280073 0.0006464123485596882 -0.0001920287046316239 0.002373333764479171 -0.00383019957343531 -7.939943197835748e-05 0.0001313734741073593 -0.008498135354426282 
0.01597791538288575 -0.004191770966368486 -0.002494821130897281 0.003269582092200388 0.001553158100203284 -0.003993991261300163 -0.001725517192141424 -0.0004168854588675123 -0.01754324635504597 -0.001691497334177196 -0.003497927051391677 -4.113509018503295e-05 -0.0005502000974183911 -0.002603507382764508 -0.002077994715327376 0.001750734062799836 0.005253122534856407 
-0.001116800147651816 -0.0008638034128005112 0.001855172817447661 0.001541878641616328 -0.001061024445113236 0.001367258221771779 0.005886934714130691 0.000739431058977781 -0.002112559761888972 0.0002170248297802475 0.0008176592229217767 -0.002136997528809439 -0.006758782207221693 0.005131702283313792 0.0003196814395561612 0.0005653608149570176 -0.00191860449509197 
-0.0005011989128557957 -0.002635614818128564 -0.003533659200288852 -0.001627557992260523 0.008201223531462789 -0.002252122499348765 -0.003788970411257336 -0.001472394428185569 -0.001331020347148787 0.0007734212132183548 -0.004363934845354251 -0.001585041916552332 -0.001939282621835269 -0.00065933243696419 -0.0062570049216217 -0.006015239482175237 -0.001740268793101203 
-0.0007714553209235837 -0.0002642107116853385 0.0008001312339688124 0.001844676859605305 -0.0003377873847101097 -0.0008950751254439738 -0.002471526655835367 -0.0001417512422500432 0.0006080276486788587 -0.0003157117072048772 -4.28807846335183e-05 -0.0007530791205080993 -0.0009855323762256746 0.0006825708949061917 -0.001849257469130469 -0.001466221013923243 0.000719325516638228 
-0.00239346347516503 0.00694923488430966 0.003284518174691534 0.004894538271738489 -0.0008807288760006673 -0.0001808623301516996 -0.0003786000746479782 -0.001437179601454417 -0.005334265917231029 -0.002662223380424033 -0.0004971689205418026 0.001477148657070123 -0.01253851070238151 0.01186517415025194 -0.003308870391747947 -0.002653811212499979 -0.003730327591230494 
-1.16311372004272e-05 -0.007137623865164305 -0.00093260910959379 -0.002281358745753753 -0.002177262108096238 -0.006223094259181377 0.0008664721771201395 0.001301520985554717 -0.005286005246892211 -0.001912976807675826 -0.0003663602505587008 0.002906965354982177 -0.004785010870687429 0.01531384979845774 -0.001426718521996001 -0.002535287619187484 -0.001290125281913295 
-0.002419858455362428 -0.0001410889477430852 0.005159364486105586 -0.0003716270996332389 -0.0009183031565977934 0.008621050668818622 0.003410972505095818 -0.0002995818948424694 0.005204740619811888 0.001395384445756685 0.0008681493148059107 -0.00693791350193624 -0.009228667955860729 -0.006182886378261203 -0.003571844859805141 -0.0003954765936811888 0.001452042620191675 
-7.225472560735349e-05 -0.0005915393699946416 -0.0009571925636476423 -0.0002491124632487422 0.001845637356413256 -0.003167616701152918 1.527987071161331e-05 1.874742611908604e-06 -0.0001214658833440919 0.0006055986897555589 0.0006138562814737711 0.0007015363165500005 0.0006203536095732101 -0.001103559621020772 -0.00133222513565821 -0.002511734391384137 -0.0002697684135556034 
0.0005342707569772528 3.699623149593024e-05 -0.002724390903381897 -0.003010549249251572 -4.466022954947505e-05 -0.00244732391507824 -0.0009859700992773009 -0.001172698265115789 0.001657397276970827 -0.0005313960947777598 -0.002650250285530513 -0.0005129403285026067 -0.002621767499485377 -0.003014332453546249 0.001277617436327918 -0.002325684163175741 -0.001016919610409861 
0.001170001039555621 -0.0002600340332113926 0.002556987557113829 -0.000113351774595774 0.0002892786311377122 -0.001681015301932696 0.005769996296802323 0.002529375449495791 -0.001101795038854667 0.0009986232330580574 0.001249351815669142 -0.001446521052660545 -0.002509739349852083 -0.005734510652377045 -0.0006740118780076543 0.0003728589271939416 -0.0007219816062859607 
-0.003109906649201058 0.001624162106926358 0.005412565888145621 -0.0003670262025537786 0.000347592287586797 0.002440761126311685 -0.002345645812674031 -0.002428963816292187 -0.004762542478556008 -0.003358796057310348 -0.00552124229657315 -0.005231375024019018 -0.007067084762332872 -0.001517529585057959 0.004578558925813852 -0.003273938510506789 -0.001553781184812308 
-0.009248106594907494 0.004989581809916498 0.009440216235309998 -0.002663439984130595 -0.00039445071387127 -0.00749815021774907 -0.01223162208321953 -0.0002701031110682383 0.008768954577001662 -0.003484745787942493 -0.0080687834147198 0.003810875143638039 0.0008124189116095245 -0.01148685408252413 -0.007741003669544637 0.0003029879414682007 -0.006257573349016363 
-5.280665786524625e-05 -0.0009254051558588178 -2.466485072631425e-05 -0.0001798647220980157 -0.0008286026130234116 0.0005292534464322588 -0.0004768090702304086 0.001394083857101837 -0.000329877494302335 -0.001268506789100321 -9.349856353472391e-05 0.001422793282599041 -0.0006814725891717718 0.0006632272326137639 -0.0001784700074018859 0.0001949040374414484 -5.786438708299589e-05 
-3.506466354482954e-05 0 -1.901317889633304e-05 -5.334141223987435e-05 -9.759569511371736e-05 0.0001100768211527153 -7.382362495604598e-05 -0.0002180583855866073 -0.0001076178547292316 -9.824895424540973e-05 -2.13133705886878e-05 -0.0001067791514765562 -0.0005634100154643302 -4.538474979480689e-05 -0.0006792987277294063 -4.103476929396584e-05 -9.141870406076758e-05 
8.503416697045124e-21 -1.506820926540807e-05 0 -8.146787629116624e-07 -4.210173816401656e-07 -6.16852108116363e-05 -6.19977994348063e-05 -6.627632442080136e-06 -2.737975040872095e-06 -5.729028547480903e-06 -0.001082714010819319 4.56068658977351e-05 -4.726051443204327e-05 0.0007448565396041419 -0.0002477861499944029 -5.694301829205648e-06 0 
-0.001404286665940317 0.004091889990265304 -0.003206428499648997 -0.003264332022455848 0.002889932121966409 -0.00596146446462267 -0.00241535124402742 0.000967004470218706 0.0006756768961771496 -0.005742758412697261 -0.007751097649809107 0.0009424575227325167 0.0001761232404987691 0.003777252766259146 0.004996635704971804 0.003431737167133454 -0.001945896432688361 
-6.437280379844902e-06 -0.003020198492828041 -9.058959938157607e-05 0.001659007479767793 -0.0003680199786009962 0.0003228499852554176 -0.002450808551074833 -0.0005542258297686888 -0.0004266344455215902 -0.0004313488186765346 4.40898764506128e-05 0.005275024720495748 -0.003059031177770914 0.0005705097751863668 -0.001058483727682494 -0.00152479888689611 5.193798102282731e-05 
-0.001727728402275581 -0.005577527756745691 -0.0009619476370152761 -0.0003981034578529688 -0.001676266687242697 -0.004730552917503781 0.000156671174604829 -0.000675623089348425 -0.0001627761121401459 0.001477910599720352 -0.001840361698585343 -0.0005311725653012625 -0.0006407971545343271 -0.002516456755999136 -0.0006582003948410385 0.006901385317050313 0.0006469925609466541 
0.0009591666074287045 0.0006162529290864513 -0.0002101389656856391 0.0009958068611632702 -0.001209038005358094 -0.001648228039584186 -0.0004126980119905663 -0.0002134515897718853 -0.001330087189190081 -0.0005026888922033592 0.002810672694064602 -0.001513794565830029 -0.0009295016993508951 -0.0009828637769229477 0.001152656293854795 -0.001083379196969073 0.001591041240198027 
-0.00556134603050038 -0.004568757122977727 0.003526329259512316 0.00167716103738564 -0.002218385780738689 -0.0008383930309732719 -0.003696957733222417 0.004038672472470056 -0.001101184531099803 -0.001663792634730956 0.001742947294466448 -0.00306121222455539 -0.00587212068277321 0.0006153684953392642 0.002693045710614271 -0.005793538597842291 -0.0004316840102430465 
-0.0007790438663916823 0.001101787183449603 -0.0009291230438219761 -9.639157619059386e-05 -2.945666331352624e-06 -0.0007083389793403865 0.0009568437245695374 -0.0001588700466851665 -0.0008002825037807053 -0.0001388367636350221 -9.300178150818216e-05 0.001288499959509319 -0.001619849711925683 0.004732967424275994 -0.001449123639821758 -0.0001081095535330232 -7.039524727707609e-05 
-0.0001205795999827196 -0.001451344407816696 -0.0001702047268271391 -0.0004524570934073146 -0.001339526619981571 -0.001013230171633445 0.003560248514444746 -0.0007173406588878752 -0.0002591516356508404 -0.0003073230881737893 -0.0003986667497010705 0.00117742826252876 -0.0007268158896807296 -0.005196625760673807 -8.288004620719357e-05 -0.0004696276722175369 -0.0003714385759363404 
-0.001272058714673584 -0.001609066043726643 0.000781600111482924 -0.000442415982350425 0.0002906372308538594 -0.002719002489451455 -0.002458524604929566 0.002482365982886116 -0.0007161227498051144 -0.0004231903586454975 0.001096315551165503 -0.0009641917346620547 -0.0009846350616372439 -0.0009691643377848111 -0.0006091752863381688 0.003120537696513906 -0.0004126027559006295 
0.0002137854901320372 -0.002331389743527787 -0.002082403919385036 -0.000292597826358469 -0.002279497935517991 -8.61536322971436e-05 -0.004207633798201238 0.003464336759002081 -0.002897502858453295 -0.003236643967154105 0.001872407756768633 -0.0003488911136270453 0.004040511261767582 0.005911651279092306 -0.004055979044272798 -0.001324192791243424 -0.0008498686823908749 
-0.002586276082786983 0.0002799115604596956 -0.006047063300368122 0.0007701588556166247 -0.0003297342770669891 0.00926029570819481 1.017567838267331e-05 -0.002612985988740363 -0.004924022343582996 -0.001467343103406274 -0.004190801961674291 0.0002965806150121943 -0.005042043578221351 -0.006847794714018046 -0.004349149231553049 0.007478933605335963 -0.0002333766036611649 
-0.0002050990414821078 -0.0001957247115253152 0.0008912386689281202 -0.0002207753954062274 -0.0008917606470611313 -0.0003808471772133151 0.001010269424515784 0.002048376681619603 -0.0003605315965051785 0.0003124486253888809 -0.0005522841204720494 -0.0006961128142477066 -0.002243771602430981 -0.001909387319711473 0.0007656714259763136 -0.0003797211634002895 -7.791132244181298e-05 
-0.001749693114111046 3.87031746035365e-05 0.0001575319101007545 -0.003717469647427092 -0.002867431753535125 -0.0008782192505357121 -0.002569327807326739 0.002293199248234604 -0.0004165251332408709 0.003292116291183084 -0.0003065876983221787 -0.00274997708287644 -0.002751386497030787 -0.007229676414170828 -0.0002256548044867331 0.001426490051698111 -0.0001235929692771922 
-0.001751981560035374 -0.003156157117818353 0.0001144198956595063 -0.0008311498070493932 -0.0004387929329695899 -0.0007081607471672827 0.002038255497219456 -0.001474438110557388 -0.002211797004772159 -0.003403184147527448 -0.001827340149720286 0.0008027582187324051 -0.002835163693519433 -0.004321006357599468 -0.001826296675114671 -0.002675475007325124 0.002377830764640232 
-0.00391369241426117 -0.003229958441633864 -0.005990139550580571 -0.002822769621798341 -0.002169815986452023 -0.004740485974930297 0.000870319169144628 -0.002781133156677944 0.006447146975958348 -0.001741667878789095 0.002643974073156485 0.003946661282258117 0.003269214014066085 0.003756564620528755 2.832610282538333e-05 -0.0005467647128671447 0.001781796783421443 
0.001217408484821294 0 -0.0003910113702165552 -0.0009116302749622262 -0.0003949499231899845 0.0002692770834038411 0.0009247148341969855 -0.0005089412915935851 0.002203789520546788 -3.816164350861746e-05 -0.000118688989914811 -0.0003615122449999261 0.0002723406678938486 -0.0003444407306711143 -0.0003576285732270372 0.0002063777478909264 -0.0003318382332421774 
0.003066199705311555 -0.004689029844339518 -0.002993651176930478 -0.004916344503965673 -0.005898368906447818 -0.009862965255236927 -0.003929673203242918 -0.003375501938858992 -0.002420265393367911 -0.001152897920324823 -0.00353563589601634 -0.007622914493383311 -0.009584231398502428 0.01391482465522826 0.008655699359037072 -0.001688652197392687 -0.001513854553357332 
0.001249719250147382 -0.001387862514908728 0.003718300937683362 -0.002486123377016648 -0.0004732354866656691 -0.002807344608956396 -0.007454609374814188 -0.001385717599006952 0.001837415870472856 -0.000914432424405902 0.005059269456716963 -0.00442023140376893 -0.004061839321894291 -0.003964898045762354 -0.0008796448939689427 0.005747292531942847 -0.001601275112077045 
-0.0004294776405954704 -0.001126641869247819 -0.0004980349658449916 -0.0001072705221658286 0.0005068421008513766 -0.000995194984597367 0.001359257754279063 0.001488712187677534 -0.001468453923043856 -0.001684912436235062 -0.0006851050620036273 0.0004225686700563902 -0.003467980743970981 -0.0002156203294407585 0.00109238285026145 -0.0004725259942679027 -0.0009308893894928966 
-0.003101266944222162 -0.0005405158505556622 -0.001849770142328636 -0.002998503878345823 -0.0003272705502737064 0.000879943807310249 -0.0009107142246736662 0.0001698097113674138 0.003992772126935176 -7.69904871695517e-06 -0.0005515887417077646 -0.0005499561194558111 -0.001436571366273911 -0.003219156294385283 -1.751240618448266e-19 -0.0003575324034278809 0.004034552374975379 
0 0 0 0 -6.566469155899258e-07 -6.592773862074575e-05 1.355252715606881e-20 0.0003423997109064334 0 -8.601620543059085e-07 0 0.0001541978393943396 -0.0003288442215753743 -0.0001315660598231843 -1.74195992898806e-05 -6.776263578034403e-21 -9.053068602813084e-05 
-0.003452257373259433 -0.002861445839431379 0.003466834387169768 -0.0002338476641922715 -0.0008668923336375082 0.006081393272283442 -0.003598134224594938 0.0001249731485283109 -0.002068099032706084 -0.006727272969165258 -0.003474743212199239 0.0003586878674816875 -0.001678793386628797 0.00125092161910579 0.005880215328128982 -0.002287518366434834 -0.002037565491056341 
-0.0002645154392355862 0.0006377599526508893 -0.0002215741117999228 -0.0004710771570189469 -0.000313082069363556 0.00368031112501978 -0.0003798571646473123 -0.001589726989746332 -0.0004586604199148241 -0.0008002621924803813 -0.0002440801804947045 -0.0005090994393169445 -0.0005738355656647975 -0.0001791719344483452 -0.0004382628055661844 -0.0003116176949089721 -6.433172951742259e-06 
-0.002412216604436179 -0.00208580122256734 0.0005365612080268146 0.0007327980766753536 -7.601899062178358e-05 0.002723161459028954 -0.0007917093596367604 -0.001167457411506211 1.787275354689448e-05 -0.001524660662060187 0.003688678608384554 -0.00382766334196088 0.006408139310087139 -0.004419719372405399 -0.0006471921148947951 -0.001060690732060859 -0.00179238368683819 
-0.0004977611986452279 -0.000320469461423095 -0.001153926195358785 -0.0001009956886486346 0.000122541364667568 0.002650154379207037 -0.0001146761722423591 -0.000103580125892951 -0.0003338171598917364 -0.0005354001057036656 -0.0002517772999815389 -0.001169064867584841 0.003662018486697109 -0.002474824729010932 -0.0002173861980555775 -0.0008584759805002438 -8.756989186927681e-05 
-2.244637310223896e-20 -0.0004250203014252598 -0.0005718905236507619 -2.723013392492359e-05 0.0002991527030147147 -0.001683540494642135 -0.0002475606868283803 -0.0002572278791509835 -0.0001815527231464106 0.001617730641478844 -0.001050941371875925 -0.001445891292532771 -0.000273414576794787 -2.032879073410321e-20 -0.001338129591989642 -3.369124250193633e-05 -9.935304384159608e-05 
0 -5.183143956365777e-05 0 -4.255017070972774e-21 -1.764272459744238e-06 -7.838795807412064e-05 -5.230659101629578e-06 -2.95122097932329e-06 0 2.276568709821251e-05 0 8.470329472543003e-22 0 0 -2.325645469344709e-06 -1.058791184067875e-22 0 
0 -0.0002460595735471917 0 0 0 -0.0001264066432183967 0 -1.905824131322176e-21 0 0.0001152800538540934 -2.319198989546873e-05 -2.635580485053727e-05 -4.235164736271502e-21 0 0 -7.41426582131426e-05 -5.373189812036066e-06 
1.95506058869386e-05 -0.0001349755335961788 -0.0001239288940735383 0.0009754470342757983 -0.0002692677446998039 -0.001310245211913548 -0.003001144560056391 -0.0002746755894493387 -0.001612038447839163 0.000480724002139859 -0.001137119091386 0.000229288663951976 0.0001270361467408215 0.001203057172893311 -0.0006406908456894785 0.0003282790618379387 0.0006956604046440827 
-0.0001795925242368801 -0.001147308304430053 -0.002058288235304547 -0.002396923884488167 8.143453279952052e-05 -0.007659030915558693 -8.505451838337465e-05 -0.001947089827298367 0.000120820062768224 -0.005725191586952115 -0.001569951350294799 -0.002321860388299771 -0.00199707624461235 -0.007073074722631913 0.001234084157422135 0.007601155210688632 -0.0004846317474334576 
0.002263862106316827 -0.004466007316851254 0.006319907885983286 0.004735572522660028 0.004937578529902283 0.003717781835007069 -0.01177133121793241 0.0006937729578514601 -0.005978636348975583 0.00595676383618754 -0.009906160644256671 -0.007869660381920784 0.00561602420877329 0.001872404008141031 -0.007351680558267263 -0.0004416091019251743 -0.0001434389853096867 
0 0 0 0 0 0 0 0 0 0 0 0 0 0 0 0 0 
0.0008527138373800698 -2.59119392989617e-05 -0.001023095126476814 -0.0002208168953534103 0.0001072092804640564 0.002617344268213969 -0.0005709774333635798 -0.0007283898432086901 -0.0002099802733854239 0.001002292344611879 -0.002268814450940535 0.00419131784099825 -0.000765746414876267 0.002256616691111965 -0.0005424403978392089 -0.001643189419359275 0.0002985773101138839 
0 0 0 0 -8.399014970127767e-06 -0.0001176955465637327 0 -2.311845905573977e-05 1.355252715606881e-20 0 0 0 -0.0004525062326780974 0.0004721610296767242 -0.0001818995435493174 0 0 
-2.924062609480178e-05 -0.0003293949191011101 -0.0007783568232476182 -9.365596060250635e-05 -0.001548737492820873 0.002204462154320726 -0.0002695271841851486 0.002906190609996125 -0.000684011814530885 -0.0002739089247900731 -0.003140730942074872 -0.001350369215071288 -0.0002929507338197692 -0.0001151801318407413 0.0001679182854947676 0.003713672232748474 -0.0001266207848199479 
-6.369111187243735e-05 -0.000255462370612386 -0.002252500156347775 -0.001423178195795341 0.001662657540847235 -0.002349490633637707 -0.001650055439119147 -0.002097750751161769 -0.0004714163631846327 0.002019008087269302 -0.0007090956380646656 -0.001080282216905009 -0.001081039365095313 0.0007803231135304429 0.000806063866608919 -0.0009794704952619192 -0.0001981563042821755 
-0.0002930661290911067 -0.0008763294088777194 -0.0006553272446055033 0.0006620733534217951 -0.001203857598297773 -0.0006850695870821836 -0.0006614866678293855 0.002032943109775582 -0.0002473274958556301 0.0001634087906176554 -0.001460678852236411 0.001616236783610879 -0.0006620478204213543 9.00408714801583e-05 -0.0001194995442227155 -0.0001787687440616262 -0.0006492750041360027 
0.0005256276519055418 -0.0006733149686885797 -0.01286759050806209 -0.002661643532773266 -0.002204701946086495 -0.003011739726247055 0.003599006709000513 -0.001431079362908825 -0.009153646283786412 -0.001233858031353383 0.002818126338336266 -0.002369383023686352 -0.007310471770282535 0.01385921132620271 -0.00075400720474059 0.004889392162415014 0.004576317093292714 
